{"learner":{"attributes":{"scikit_learn":"{\"_estimator_type\": \"classifier\"}"},"feature_names":[],"feature_types":[],"gradient_booster":{"model":{"gbtree_model_param":{"num_parallel_tree":"1","num_trees":"300"},"iteration_indptr":[0,1,2,3,4,5,6,7,8,9,10,11,12,13,14,15,16,17,18,19,20,21,22,23,24,25,26,27,28,29,30,31,32,33,34,35,36,37,38,39,40,41,42,43,44,45,46,47,48,49,50,51,52,53,54,55,56,57,58,59,60,61,62,63,64,65,66,67,68,69,70,71,72,73,74,75,76,77,78,79,80,81,82,83,84,85,86,87,88,89,90,91,92,93,94,95,96,97,98,99,100,101,102,103,104,105,106,107,108,109,110,111,112,113,114,115,116,117,118,119,120,121,122,123,124,125,126,127,128,129,130,131,132,133,134,135,136,137,138,139,140,141,142,143,144,145,146,147,148,149,150,151,152,153,154,155,156,157,158,159,160,161,162,163,164,165,166,167,168,169,170,171,172,173,174,175,176,177,178,179,180,181,182,183,184,185,186,187,188,189,190,191,192,193,194,195,196,197,198,199,200,201,202,203,204,205,206,207,208,209,210,211,212,213,214,215,216,217,218,219,220,221,222,223,224,225,226,227,228,229,230,231,232,233,234,235,236,237,238,239,240,241,242,243,244,245,246,247,248,249,250,251,252,253,254,255,256,257,258,259,260,261,262,263,264,265,266,267,268,269,270,271,272,273,274,275,276,277,278,279,280,281,282,283,284,285,286,287,288,289,290,291,292,293,294,295,296,297,298,299,300],"tree_info":[0,0,0,0,0,0,0,0,0,0,0,0,0,0,0,0,0,0,0,0,0,0,0,0,0,0,0,0,0,0,0,0,0,0,0,0,0,0,0,0,0,0,0,0,0,0,0,0,0,0,0,0,0,0,0,0,0,0,0,0,0,0,0,0,0,0,0,0,0,0,0,0,0,0,0,0,0,0,0,0,0,0,0,0,0,0,0,0,0,0,0,0,0,0,0,0,0,0,0,0,0,0,0,0,0,0,0,0,0,0,0,0,0,0,0,0,0,0,0,0,0,0,0,0,0,0,0,0,0,0,0,0,0,0,0,0,0,0,0,0,0,0,0,0,0,0,0,0,0,0,0,0,0,0,0,0,0,0,0,0,0,0,0,0,0,0,0,0,0,0,0,0,0,0,0,0,0,0,0,0,0,0,0,0,0,0,0,0,0,0,0,0,0,0,0,0,0,0,0,0,0,0,0,0,0,0,0,0,0,0,0,0,0,0,0,0,0,0,0,0,0,0,0,0,0,0,0,0,0,0,0,0,0,0,0,0,0,0,0,0,0,0,0,0,0,0,0,0,0,0,0,0,0,0,0,0,0,0,0,0,0,0,0,0,0,0,0,0,0,0,0,0,0,0,0,0,0,0,0,0,0,0,0,0,0,0,0,0,0,0,0,0,0,0,0,0,0,0,0,0],"trees":[{"base_weights":[-3.25908E-1,1.3211048E-1,-4.8499098E-1,9.777232E-1,-3.8577724E-2,-2.0194581E-1,-6.4309955E-1,7.4273504E-2,1.9050343E-2,3.6733583E-2,-1.8920448E-1,1.7295922E-1,-4.436087E-1,-7.153826E-1,-5.7603985E-2,3.444993E-1,-3.9670593E-1,3.921891E-2,-1.6591797E-2,-1.5390028E-1,-6.467713E-1,-5.148991E-1,-8.500251E-1,-2.065466E-2,1.1867542E-2,4.2941045E-2,-1.951957E-2,1.2425935E-2,-2.7403817E-2,1.7507536E-2,-2.4810975E-2,4.78772E-3,-2.750877E-2,-4.0663168E-2,-1.4824397E-3,-4.782715E-3,-3.0112112E-2,-2.2382341E-2,-4.5578647E-2],"categories":[],"categories_nodes":[],"categories_segments":[],"categories_sizes":[],"default_left":[0,0,0,0,0,0,1,0,0,0,0,0,0,0,0,0,0,0,0,0,1,0,0,0,0,0,0,0,0,0,0,0,0,0,0,0,0,0,0],"id":0,"left_children":[1,3,5,7,9,11,13,-1,-1,-1,15,17,19,21,23,25,27,-1,29,31,33,35,37,-1,-1,-1,-1,-1,-1,-1,-1,-1,-1,-1,-1,-1,-1,-1,-1],"loss_changes":[3.5588696E1,1.8344809E1,1.5980598E1,5.709757E0,1.2413784E1,1.200716E1,9.678932E0,0E0,0E0,0E0,1.0053653E1,6.1224337E0,4.548465E0,4.9817123E0,2.9130182E0,1.0003855E1,6.518977E0,0E0,7.3279037E0,3.5238848E0,4.690119E0,3.0044537E0,2.459938E0,0E0,0E0,0E0,0E0,0E0,0E0,0E0,0E0,0E0,0E0,0E0,0E0,0E0,0E0,0E0,0E0],"parents":[2147483647,0,0,1,1,2,2,3,3,4,4,5,5,6,6,10,10,11,11,12,12,13,13,14,14,15,15,16,16,18,18,19,19,20,20,21,21,22,22],"right_children":[2,4,6,8,10,12,14,-1,-1,-1,16,18,20,22,24,26,28,-1,30,32,34,36,38,-1,-1,-1,-1,-1,-1,-1,-1,-1,-1,-1,-1,-1,-1,-1,-1],"split_conditions":[5E0,3.5125855E-1,5.4945785E-1,5.0404644E-1,4.404055E2,6.1362875E-1,2.0525168E-1,7.4273504E-2,1.9050343E-2,3.6733583E-2,5.3960955E-1,7.718685E3,3.795387E-1,3.5215718E-1,3.5981005E-1,6.334095E-1,3.2411534E-1,3.921891E-2,1.4556223E-1,1.821946E-1,1.1320121E0,6.10308E3,5.128776E-1,-2.065466E-2,1.1867542E-2,4.2941045E-2,-1.951957E-2,1.2425935E-2,-2.7403817E-2,1.7507536E-2,-2.4810975E-2,4.78772E-3,-2.750877E-2,-4.0663168E-2,-1.4824397E-3,-4.782715E-3,-3.0112112E-2,-2.2382341E-2,-4.5578647E-2],"split_indices":[19,4,12,15,27,11,22,0,0,0,7,28,18,18,3,12,15,0,17,17,29,28,11,0,0,0,0,0,0,0,0,0,0,0,0,0,0,0,0],"split_type":[0,0,0,0,0,0,0,0,0,0,0,0,0,0,0,0,0,0,0,0,0,0,0,0,0,0,0,0,0,0,0,0,0,0,0,0,0,0,0],"sum_hessian":[4.860697E2,1.25185875E2,3.6088382E2,2.032933E1,1.04856544E2,1.3038284E2,2.3050098E2,1.0088239E1,1.0241091E1,1.6355175E1,8.8501366E1,5.10526E1,7.933024E1,2.0482182E2,2.5679153E1,2.4456337E1,6.404503E1,1.1463908E1,3.9588696E1,3.3627464E1,4.5702778E1,8.4527214E1,1.202946E2,1.161676E1,1.4062393E1,1.4368097E1,1.0088239E1,1.1922464E1,5.2122566E1,2.246926E1,1.7119436E1,2.0940739E1,1.2686725E1,3.561454E1,1.0088239E1,1.5132359E1,6.939485E1,1.7272287E1,1.03022316E2],"tree_param":{"num_deleted":"0","num_feature":"30","num_nodes":"39","size_leaf_vector":"1"}},{"base_weights":[-3.171229E-1,3.886268E-2,-5.3549594E-1,3.1730217E-1,-2.7189043E-1,2.1977028E-2,-5.727061E-1,5.705733E-2,1.953404E-1,-5.7725245E-1,-1.2221124E-1,-7.158863E-1,-3.3365974E-1,-2.733987E-2,3.142473E-1,-6.600775E-3,-4.0953796E-2,2.4752816E-2,-3.4669778E-1,-3.6603507E-1,-8.0965835E-1,-4.894112E-2,-2.0883569E-1,2.208049E-2,-1.5143948E-2,-2.4715995E-2,6.7674876E-3,4.0088905E-4,-4.5156904E-2,-1.2647581E-2,-4.3606948E-2,5.698535E-3,-2.7352089E-2],"categories":[],"categories_nodes":[],"categories_segments":[],"categories_sizes":[],"default_left":[0,0,0,0,0,0,0,0,0,0,0,0,0,0,0,0,0,0,0,0,0,0,0,0,0,0,0,0,0,0,0,0,0],"id":1,"left_children":[1,3,5,7,9,-1,11,-1,13,15,17,19,21,-1,23,-1,-1,-1,25,27,29,-1,31,-1,-1,-1,-1,-1,-1,-1,-1,-1,-1],"loss_changes":[3.746233E1,1.5980108E1,1.1090073E1,9.438487E0,3.8428717E0,0E0,9.511055E0,0E0,7.757661E0,2.830737E0,8.467077E0,5.456352E0,8.5346365E0,0E0,6.0480485E0,0E0,0E0,0E0,3.2826538E0,8.107634E0,4.5387726E0,0E0,1.0320258E1,0E0,0E0,0E0,0E0,0E0,0E0,0E0,0E0,0E0,0E0],"parents":[2147483647,0,0,1,1,2,2,3,3,4,4,6,6,8,8,9,9,10,10,11,11,12,12,14,14,18,18,19,19,20,20,22,22],"right_children":[2,4,6,8,10,-1,12,-1,14,16,18,20,22,-1,24,-1,-1,-1,26,28,30,-1,32,-1,-1,-1,-1,-1,-1,-1,-1,-1,-1],"split_conditions":[5.855407E-1,7E0,7.847484E3,2.8241178E-1,5.8438044E0,2.1977028E-2,1E0,5.705733E-2,4.630821E0,7E0,4.0860978E-1,1.0418652E-1,5E0,-2.733987E-2,8.874629E-1,-6.600775E-3,-4.0953796E-2,2.4752816E-2,5.573757E-1,7.02295E-1,4.2987695E-1,-4.894112E-2,1.02388E1,2.208049E-2,-1.5143948E-2,-2.4715995E-2,6.7674876E-3,4.0088905E-4,-4.5156904E-2,-1.2647581E-2,-4.3606948E-2,5.698535E-3,-2.7352089E-2],"split_indices":[10,19,26,12,9,0,1,0,20,8,12,2,8,0,4,0,0,0,16,7,12,0,9,0,0,0,0,0,0,0,0,0,0],"split_type":[0,0,0,0,0,0,0,0,0,0,0,0,0,0,0,0,0,0,0,0,0,0,0,0,0,0,0,0,0,0,0,0,0],"sum_hessian":[4.800005E2,1.826362E2,2.973643E2,9.648495E1,8.615125E1,1.0434844E1,2.8692944E2,1.125843E1,8.522652E1,2.7178804E1,5.8972446E1,1.7793791E2,1.0899153E2,1.1156367E1,7.407015E1,1.0255738E1,1.6923067E1,1.5287066E1,4.368538E1,3.8873993E1,1.3906392E2,1.6429848E1,9.256168E1,6.1768764E1,1.2301387E1,3.358294E1,1.0102443E1,2.3386145E1,1.5487846E1,1.4703508E1,1.2436042E2,4.7547E1,4.5014683E1],"tree_param":{"num_deleted":"0","num_feature":"30","num_nodes":"33","size_leaf_vector":"1"}},{"base_weights":[-3.3156642E-1,-1.0503336E-2,-5.418223E-1,3.3568928E-1,-2.4571691E-1,-6.014938E-1,8.0652036E-2,5.9433234E-1,5.0764233E-2,2.4526121E-2,-3.507835E-1,-7.0130014E-1,-1.947321E-1,3.5057146E-2,-2.6861578E-2,5.3134587E-2,2.0897152E-1,-3.034749E-1,2.7627422E-2,9.448815E-3,-4.454587E-1,-1.6029552E-1,-7.960499E-1,2.184594E-2,-3.7216043E-1,-7.0829033E-3,2.9864633E-2,-2.9778862E-2,-1.1746114E-4,-4.831257E-3,-3.0301495E-2,9.156431E-3,-3.6491763E-2,-1.1846917E-3,-4.206309E-2,-0E0,-3.0192176E-2],"categories":[],"categories_nodes":[],"categories_segments":[],"categories_sizes":[],"default_left":[0,0,0,0,0,1,0,0,0,0,0,0,0,0,0,0,0,0,0,0,0,0,0,0,0,0,0,0,0,0,0,0,0,0,0,0,0],"id":2,"left_children":[1,3,5,7,9,11,13,15,17,-1,19,21,23,-1,-1,-1,25,27,-1,-1,29,31,33,-1,35,-1,-1,-1,-1,-1,-1,-1,-1,-1,-1,-1,-1],"loss_changes":[3.2365826E1,1.5650676E1,1.0874596E1,5.6270485E0,9.02717E0,1.0530197E1,1.0402849E1,6.946164E0,6.986481E0,0E0,5.273094E0,1.0652504E1,6.183838E0,0E0,0E0,0E0,3.3349056E0,1.9560027E0,0E0,0E0,4.711582E0,6.6487737E0,6.1839447E0,0E0,3.7002797E0,0E0,0E0,0E0,0E0,0E0,0E0,0E0,0E0,0E0,0E0,0E0,0E0],"parents":[2147483647,0,0,1,1,2,2,3,3,4,4,5,5,6,6,7,7,8,8,10,10,11,11,12,12,16,16,17,17,20,20,21,21,22,22,24,24],"right_children":[2,4,6,8,10,12,14,16,18,-1,20,22,24,-1,-1,-1,26,28,-1,-1,30,32,34,-1,36,-1,-1,-1,-1,-1,-1,-1,-1,-1,-1,-1,-1],"split_conditions":[6.2494725E-1,5.279634E-1,2E0,4.712192E-1,3.3347365E-1,-5.723391E-2,6.146306E-1,1.0842341E1,1.5812877E1,2.4526121E-2,1.1125596E0,3.986498E-1,1.0795034E-1,3.5057146E-2,-2.6861578E-2,5.3134587E-2,9E0,4.1299045E-1,2.7627422E-2,9.448815E-3,1.0533317E-1,4.7321182E-1,3.4297025E-1,2.184594E-2,7.0140797E-1,-7.0829033E-3,2.9864633E-2,-2.9778862E-2,-1.1746114E-4,-4.831257E-3,-3.0301495E-2,9.156431E-3,-3.6491763E-2,-1.1846917E-3,-4.206309E-2,-0E0,-3.0192176E-2],"split_indices":[11,12,1,15,11,22,10,9,9,0,29,12,22,0,0,0,8,12,0,0,17,18,5,0,10,0,0,0,0,0,0,0,0,0,0,0,0],"split_type":[0,0,0,0,0,0,0,0,0,0,0,0,0,0,0,0,0,0,0,0,0,0,0,0,0,0,0,0,0,0,0,0,0,0,0,0,0],"sum_hessian":[4.793579E2,1.9029733E2,2.8906058E2,7.664184E1,1.1365549E2,2.6395203E2,2.5108538E1,3.942058E1,3.7221252E1,1.3616851E1,1.00038635E2,2.1116814E2,5.2783897E1,1.2541354E1,1.2567183E1,1.6883541E1,2.2537043E1,2.1933218E1,1.5288036E1,1.462227E1,8.541637E1,3.2029938E1,1.791382E2,1.113101E1,4.165289E1,1.2041768E1,1.0495274E1,1.0468493E1,1.1464725E1,2.7625576E1,5.779079E1,2.0295145E1,1.1734794E1,1.0113025E1,1.6902518E2,1.630309E1,2.53498E1],"tree_param":{"num_deleted":"0","num_feature":"30","num_nodes":"37","size_leaf_vector":"1"}},{"base_weights":[-2.8481436E-1,1.3024278E-1,-4.7266212E-1,4.2782754E-1,-2.3185298E-1,-5.251839E-1,3.3054303E-2,5.928876E-1,-2.0966038E-2,-3.5765374E-1,1.56149035E-2,-1.6988225E-1,-6.2505615E-1,8.344972E-1,6.986076E-2,-2.8511172E-3,-5.187481E-1,2.730577E-1,-3.7433326E-1,-4.7770214E-1,-7.853501E-1,2.3526568E-2,8.4058605E-2,2.7319122E-2,-1.944744E-2,-1.1782973E-3,-3.653432E-2,2.8824866E-2,-1.8783797E-3,4.870701E-3,-2.7285933E-2,-2.8107986E-2,-2.1178033E-3,-4.242117E-2,-5.1579163E-3],"categories":[],"categories_nodes":[],"categories_segments":[],"categories_sizes":[],"default_left":[0,0,1,0,0,0,0,0,0,0,0,0,0,0,0,0,0,0,0,0,1,0,0,0,0,0,0,0,0,0,0,0,0,0,0],"id":3,"left_children":[1,3,5,7,9,11,-1,13,-1,15,-1,17,19,21,23,-1,25,27,29,31,33,-1,-1,-1,-1,-1,-1,-1,-1,-1,-1,-1,-1,-1,-1],"loss_changes":[3.7217163E1,1.6169971E1,1.9873878E1,1.1769412E1,4.7501945E0,1.09659195E1,0E0,8.616798E0,0E0,2.6054587E0,0E0,6.5010843E0,5.27874E0,1.354665E1,5.287435E0,0E0,3.6707993E0,2.2154613E0,4.0470786E0,4.7096863E0,4.7799225E0,0E0,0E0,0E0,0E0,0E0,0E0,0E0,0E0,0E0,0E0,0E0,0E0,0E0,0E0],"parents":[2147483647,0,0,1,1,2,2,3,3,4,4,5,5,7,7,9,9,11,11,12,12,13,13,14,14,16,16,17,17,18,18,19,19,20,20],"right_children":[2,4,6,8,10,12,-1,14,-1,16,-1,18,20,22,24,-1,26,28,30,32,34,-1,-1,-1,-1,-1,-1,-1,-1,-1,-1,-1,-1,-1,-1],"split_conditions":[5.469557E-1,7E0,6.325525E-1,7.402447E-1,7.942072E-1,5E0,3.3054303E-2,6.2494725E-1,-2.0966038E-2,4.2394894E-1,1.56149035E-2,6.39647E-1,6.767259E-1,6.8130726E-1,1.0065663E-1,-2.8511172E-3,2.405988E-1,3.9773342E-1,5.227536E-1,6.578084E-1,8.693059E-2,2.3526568E-2,8.4058605E-2,2.7319122E-2,-1.944744E-2,-1.1782973E-3,-3.653432E-2,2.8824866E-2,-1.8783797E-3,4.870701E-3,-2.7285933E-2,-2.8107986E-2,-2.1178033E-3,-4.242117E-2,-5.1579163E-3],"split_indices":[10,19,25,15,5,19,0,11,0,15,0,10,5,5,17,0,16,6,5,7,23,0,0,0,0,0,0,0,0,0,0,0,0,0,0],"split_type":[0,0,0,0,0,0,0,0,0,0,0,0,0,0,0,0,0,0,0,0,0,0,0,0,0,0,0,0,0,0,0,0,0,0,0],"sum_hessian":[4.751128E2,1.4796112E2,3.2715167E2,8.126716E1,6.669396E1,3.1326443E2,1.3887252E1,6.8364975E1,1.2902186E1,5.4598083E1,1.2095876E1,6.954743E1,2.43717E2,4.62249E1,2.2140072E1,1.9738037E1,3.4860046E1,2.1703169E1,4.784426E1,1.293828E2,1.14334206E2,3.3498516E1,1.2726385E1,1.0873692E1,1.126638E1,1.0922726E1,2.3937319E1,1.07084465E1,1.0994723E1,1.2709321E1,3.513494E1,1.0792437E2,2.1458426E1,1.04300644E2,1.0033566E1],"tree_param":{"num_deleted":"0","num_feature":"30","num_nodes":"35","size_leaf_vector":"1"}},{"base_weights":[-3.1634223E-1,8.9894116E-2,-5.020997E-1,3.6929557E-1,-2.4127465E-1,2.2444199E-1,-5.6635493E-1,5.197263E-1,-1.8348046E-2,-3.6083493E-1,1.08983535E-2,3.846308E-2,-1.1289457E-2,3.4055405E-3,-6.0356486E-1,3.1603676E-1,5.1241726E-2,-4.7121324E-2,-5.8362126E-1,-4.2934647E-1,-7.561267E-1,4.7243116E-3,4.0718153E-2,1.3773242E-2,-2.1043735E-2,-1.40687255E-2,-4.5977157E-2,7.0988666E-4,-2.6387587E-2,-4.4300925E-2,-1.0996995E-2],"categories":[],"categories_nodes":[],"categories_segments":[],"categories_sizes":[],"default_left":[0,0,0,0,0,0,0,0,0,0,0,0,0,0,0,0,0,0,0,0,1,0,0,0,0,0,0,0,0,0,0],"id":4,"left_children":[1,3,5,7,9,11,13,15,-1,17,-1,-1,-1,-1,19,21,-1,23,25,27,29,-1,-1,-1,-1,-1,-1,-1,-1,-1,-1],"loss_changes":[3.5701347E1,1.386773E1,1.5295799E1,9.205145E0,3.8552074E0,6.834156E0,7.1360703E0,6.5376225E0,0E0,3.7475696E0,0E0,0E0,0E0,0E0,7.0517273E0,5.3569627E0,0E0,3.0335786E0,2.853671E0,5.9192867E0,1.0052109E1,0E0,0E0,0E0,0E0,0E0,0E0,0E0,0E0,0E0,0E0],"parents":[2147483647,0,0,1,1,2,2,3,3,4,4,5,5,6,6,7,7,9,9,14,14,15,15,17,17,18,18,19,19,20,20],"right_children":[2,4,6,8,10,12,14,16,-1,18,-1,-1,-1,-1,20,22,-1,24,26,28,30,-1,-1,-1,-1,-1,-1,-1,-1,-1,-1],"split_conditions":[5.430579E-1,7E0,5.407522E2,7.139843E-1,7.8465223E-1,5E0,1.3437102E-2,5.8946854E-1,-1.8348046E-2,3.5265785E-1,1.08983535E-2,3.846308E-2,-1.1289457E-2,3.4055405E-3,7.679943E-1,2.4998407E-1,5.1241726E-2,4.980265E-1,4.626723E-1,4.8343614E-1,3.6489332E0,4.7243116E-3,4.0718153E-2,1.3773242E-2,-2.1043735E-2,-1.40687255E-2,-4.5977157E-2,7.0988666E-4,-2.6387587E-2,-4.4300925E-2,-1.0996995E-2],"split_indices":[10,19,27,15,5,19,17,6,0,6,0,0,0,0,4,2,0,15,10,12,20,0,0,0,0,0,0,0,0,0,0],"split_type":[0,0,0,0,0,0,0,0,0,0,0,0,0,0,0,0,0,0,0,0,0,0,0,0,0,0,0,0,0,0,0],"sum_hessian":[4.709628E2,1.4777304E2,3.2318976E2,8.0252335E1,6.75207E1,2.593135E1,2.9725842E2,6.6994125E1,1.325821E1,5.391607E1,1.36046295E1,1.1513053E1,1.4418299E1,1.6272831E1,2.809856E2,4.9041393E1,1.7952732E1,2.3078608E1,3.0837463E1,1.3326875E2,1.4771683E2,3.4910732E1,1.4130659E1,1.2384757E1,1.06938505E1,1.7356346E1,1.3481117E1,2.4169329E1,1.0909943E2,1.1823528E2,2.948155E1],"tree_param":{"num_deleted":"0","num_feature":"30","num_nodes":"31","size_leaf_vector":"1"}},{"base_weights":[-2.9412127E-1,-1.0123445E-2,-5.358851E-1,2.7664232E-1,-3.2633972E-1,-3.931401E-1,-8.09985E-1,5.4838907E-2,1.581313E-1,8.210126E-3,-4.2675748E-1,1.2208017E-2,-4.5064867E-1,-8.955755E-1,-1.2194551E-2,3.6163338E-2,4.0889017E-2,-5.508314E-1,-7.197828E-2,1.8489774E-2,-5.2889943E-1,-1.8355092E-2,-9.7232926E-1,2.2750875E-2,-9.466594E-3,-6.1403075E-4,-3.291161E-2,-1.9701902E-2,1.6181713E-2,1.6662238E-2,-1.56117305E-2,-3.2477435E-2,-8.540174E-3,-5.3375054E-2,-3.0685682E-2],"categories":[],"categories_nodes":[],"categories_segments":[],"categories_sizes":[],"default_left":[0,0,0,0,0,0,1,0,1,0,0,0,0,0,0,0,0,0,0,0,0,0,0,0,0,0,0,0,0,0,0,0,0,0,0],"id":5,"left_children":[1,3,5,7,9,11,13,-1,15,-1,17,-1,19,21,-1,23,-1,25,27,29,31,-1,33,-1,-1,-1,-1,-1,-1,-1,-1,-1,-1,-1,-1],"loss_changes":[3.210402E1,1.9738337E1,9.453613E0,1.0778918E1,5.2017736E0,6.303837E0,3.8053055E0,0E0,7.9998364E0,0E0,3.7048206E0,0E0,5.750519E0,2.4966698E0,0E0,8.263295E0,0E0,3.610094E0,3.162697E0,2.494095E0,5.5552635E0,0E0,1.345398E0,0E0,0E0,0E0,0E0,0E0,0E0,0E0,0E0,0E0,0E0,0E0,0E0],"parents":[2147483647,0,0,1,1,2,2,3,3,4,4,5,5,6,6,8,8,10,10,12,12,13,13,15,15,17,17,18,18,19,19,20,20,22,22],"right_children":[2,4,6,8,10,12,14,-1,16,-1,18,-1,20,22,-1,24,-1,26,28,30,32,-1,34,-1,-1,-1,-1,-1,-1,-1,-1,-1,-1,-1,-1],"split_conditions":[6.158746E-1,7E0,9E0,2E0,1.6440766E-1,2.9284325E-1,2.054387E-2,5.4838907E-2,4.4265363E-1,8.210126E-3,5.590377E-1,1.2208017E-2,1.7418789E0,6.67377E3,-1.2194551E-2,5.277482E-1,4.0889017E-2,3.4417087E-1,3.8294423E-1,7.699085E-1,7.9951787E-1,-1.8355092E-2,4.7361982E-1,2.2750875E-2,-9.466594E-3,-6.1403075E-4,-3.291161E-2,-1.9701902E-2,1.6181713E-2,1.6662238E-2,-1.56117305E-2,-3.2477435E-2,-8.540174E-3,-5.3375054E-2,-3.0685682E-2],"split_indices":[10,19,19,19,16,4,24,0,25,0,16,0,9,28,0,7,0,12,6,10,12,0,16,0,0,0,0,0,0,0,0,0,0,0,0],"split_type":[0,0,0,0,0,0,0,0,0,0,0,0,0,0,0,0,0,0,0,0,0,0,0,0,0,0,0,0,0,0,0,0,0,0,0],"sum_hessian":[4.6745105E2,2.1561984E2,2.518312E2,1.129753E2,1.0264454E2,1.6743433E2,8.439688E1,1.3115211E1,9.986009E1,1.7164524E1,8.548001E1,1.3445788E1,1.5398854E2,7.265338E1,1.1743504E1,8.529552E1,1.4564576E1,6.271334E1,2.276667E1,2.1939568E1,1.3204897E2,1.01123495E1,6.2541027E1,2.9648836E1,5.564668E1,1.0767285E1,5.1946056E1,1.26915245E1,1.0075147E1,1.13921995E1,1.0547368E1,9.795346E1,3.409551E1,4.7641926E1,1.4899102E1],"tree_param":{"num_deleted":"0","num_feature":"30","num_nodes":"35","size_leaf_vector":"1"}},{"base_weights":[-2.854749E-1,2.0657559E-1,-4.043903E-1,5.904651E-1,-1.0589058E-1,-7.8397684E-2,-5.086096E-1,8.2982475E-1,-6.0068867E-3,-3.6112726E-2,9.674695E-2,-2.0889212E-1,3.0406669E-2,-5.5649545E-2,-5.795875E-1,1.8057907E-2,5.4193866E-2,-1.2579346E-2,2.0557696E-2,2.8212039E-2,-3.4232852E-1,-2.3567778E-1,2.053233E-2,-9.545814E-2,-6.425207E-1,9.453335E-3,-2.7890522E-2,1.0376692E-2,-2.4932068E-2,2.4575604E-2,-3.293298E-2,-3.367519E-2,-1.393434E-4],"categories":[],"categories_nodes":[],"categories_segments":[],"categories_sizes":[],"default_left":[0,0,0,0,0,0,0,0,0,0,0,0,0,1,0,0,0,0,0,0,0,0,0,0,1,0,0,0,0,0,0,0,0],"id":6,"left_children":[1,3,5,7,9,11,13,15,-1,-1,17,19,-1,21,23,-1,-1,-1,-1,-1,25,27,-1,29,31,-1,-1,-1,-1,-1,-1,-1,-1],"loss_changes":[2.6961643E1,1.0887459E1,1.2478191E1,7.0776825E0,6.4062514E0,8.247829E0,8.909126E0,3.108408E0,0E0,0E0,4.3427534E0,8.156782E0,0E0,3.3734047E0,7.2334366E0,0E0,0E0,0E0,0E0,0E0,7.7853765E0,3.524232E0,0E0,9.986554E0,4.165619E0,0E0,0E0,0E0,0E0,0E0,0E0,0E0,0E0],"parents":[2147483647,0,0,1,1,2,2,3,3,4,4,5,5,6,6,7,7,10,10,11,11,13,13,14,14,20,20,21,21,23,23,24,24],"right_children":[2,4,6,8,10,12,14,16,-1,-1,18,20,-1,22,24,-1,-1,-1,-1,-1,26,28,-1,30,32,-1,-1,-1,-1,-1,-1,-1,-1],"split_conditions":[4.7193035E-1,6E0,5E0,6.325241E-1,5.2257633E0,3.2928877E0,1.6483326E-1,1.858676E-1,-6.0068867E-3,-3.6112726E-2,4.1015387E-1,3.055425E2,3.0406669E-2,4.6718353E2,1.6368197E0,1.8057907E-2,5.4193866E-2,-1.2579346E-2,2.0557696E-2,2.8212039E-2,5.227536E-1,3.0225402E-1,2.053233E-2,8.0207086E-1,1.0300126E-1,9.453335E-3,-2.7890522E-2,1.0376692E-2,-2.4932068E-2,2.4575604E-2,-3.293298E-2,-3.367519E-2,-1.393434E-4],"split_indices":[10,19,19,11,9,0,18,3,0,0,6,27,0,27,9,0,0,0,0,0,5,6,0,11,24,0,0,0,0,0,0,0,0],"split_type":[0,0,0,0,0,0,0,0,0,0,0,0,0,0,0,0,0,0,0,0,0,0,0,0,0,0,0,0,0,0,0,0,0],"sum_hessian":[4.580195E2,8.883952E1,3.6918E2,3.9608128E1,4.92314E1,9.0091156E1,2.7908884E2,2.9607935E1,1.0000193E1,1.1668491E1,3.756291E1,7.64089E1,1.36822605E1,3.824074E1,2.4084808E2,1.1397487E1,1.821045E1,1.7763897E1,1.979901E1,1.0660989E1,6.574791E1,2.810064E1,1.0140101E1,2.8179098E1,2.1266899E2,1.887044E1,4.6877472E1,1.0400924E1,1.7699715E1,1.3773769E1,1.440533E1,2.0264551E2,1.002347E1],"tree_param":{"num_deleted":"0","num_feature":"30","num_nodes":"33","size_leaf_vector":"1"}},{"base_weights":[-2.8731507E-1,7.02936E-1,-3.3657384E-1,5.3742867E-2,1.4223414E-2,-9.873401E-2,-4.8808384E-1,4.9160552E-1,-2.1628456E-1,1.838874E-2,-5.245287E-1,-5.905952E-3,4.587536E-2,2.2707682E-2,-2.9459128E-1,-4.133054E-1,-6.893559E-1,-2.5067938E-2,-3.803422E-3,-2.6889255E-2,-1.0411384E-2,-7.2479704E-3,-3.8824346E-2],"categories":[],"categories_nodes":[],"categories_segments":[],"categories_sizes":[],"default_left":[0,0,0,0,0,0,0,0,0,0,0,0,0,0,0,0,0,0,0,0,0,0,0],"id":7,"left_children":[1,3,5,-1,-1,7,9,11,13,-1,15,-1,-1,-1,17,19,21,-1,-1,-1,-1,-1,-1],"loss_changes":[2.2686993E1,2.9936666E0,1.5746048E1,0E0,0E0,1.2063467E1,8.57502E0,7.678317E0,7.7229595E0,0E0,4.330887E0,0E0,0E0,0E0,5.798298E0,3.815874E0,4.6339607E0,0E0,0E0,0E0,0E0,0E0,0E0],"parents":[2147483647,0,0,1,1,2,2,5,5,6,6,7,7,8,8,10,10,14,14,15,15,16,16],"right_children":[2,4,6,-1,-1,8,10,12,14,-1,16,-1,-1,-1,18,20,22,-1,-1,-1,-1,-1,-1],"split_conditions":[2E0,2.987727E-1,5.528625E-1,5.3742867E-2,1.4223414E-2,4.489354E-1,1.0079615E0,3.986498E-1,2.9284325E-1,1.838874E-2,7.5225675E-1,-5.905952E-3,4.587536E-2,2.2707682E-2,4.3044955E-1,4.8314846E-1,4.6965942E-1,-2.5067938E-2,-3.803422E-3,-2.6889255E-2,-1.0411384E-2,-7.2479704E-3,-3.8824346E-2],"split_indices":[19,18,12,0,0,11,29,12,4,0,11,0,0,0,16,16,5,0,0,0,0,0,0],"split_type":[0,0,0,0,0,0,0,0,0,0,0,0,0,0,0,0,0,0,0,0,0,0,0],"sum_hessian":[4.6000266E2,2.10729E1,4.3892978E2,1.0199964E1,1.0872937E1,1.7170291E2,2.6722687E2,2.7842905E1,1.4386E2,1.0431103E1,2.5679575E2,1.165104E1,1.6191866E1,1.4409929E1,1.2945007E2,1.5578694E2,1.0100881E2,6.561392E1,6.383615E1,9.5630455E1,6.0156494E1,1.4461899E1,8.654691E1],"tree_param":{"num_deleted":"0","num_feature":"30","num_nodes":"23","size_leaf_vector":"1"}},{"base_weights":[-2.9453164E-1,1.2729102E-1,-4.5114177E-1,8.126154E-1,-1.7054638E-2,-1.3318662E-2,-5.891871E-1,2.3471553E-2,5.459928E-2,3.5260566E-2,-1.6279931E-1,1.1806585E-1,-2.4055466E-2,-7.264358E-1,-3.917007E-1,2.452984E-2,-2.8465065E-1,-1.5036689E-1,5.024437E-1,6.467788E-3,-7.9226226E-1,1.5603821E-2,-4.768589E-1,-4.2125285E-2,-7.7810264E-3,2.026065E-2,-1.830101E-2,-3.3923804E-3,4.9645044E-2,-4.269408E-2,-9.6272206E-4,4.276763E-3,-2.7256522E-2],"categories":[],"categories_nodes":[],"categories_segments":[],"categories_sizes":[],"default_left":[0,0,0,0,0,0,0,0,0,0,0,0,0,0,0,0,0,0,0,0,1,0,0,0,0,0,0,0,0,0,0,0,0],"id":8,"left_children":[1,3,5,7,9,11,13,-1,-1,-1,15,17,-1,19,21,-1,23,25,27,-1,29,-1,31,-1,-1,-1,-1,-1,-1,-1,-1,-1,-1],"loss_changes":[3.0212307E1,1.2366064E1,2.0052994E1,1.4141712E0,1.0938436E1,5.0715055E0,6.45874E0,0E0,0E0,0E0,7.03885E0,6.7014623E0,0E0,8.491699E0,6.5282116E0,0E0,5.096637E0,4.724472E0,7.6137033E0,0E0,6.4428177E0,0E0,3.749014E0,0E0,0E0,0E0,0E0,0E0,0E0,0E0,0E0,0E0,0E0],"parents":[2147483647,0,0,1,1,2,2,3,3,4,4,5,5,6,6,10,10,11,11,13,13,14,14,16,16,17,17,18,18,20,20,22,22],"right_children":[2,4,6,8,10,12,14,-1,-1,-1,16,18,-1,20,22,-1,24,26,28,-1,30,-1,32,-1,-1,-1,-1,-1,-1,-1,-1,-1,-1],"split_conditions":[5E0,3.3679828E-1,5.167485E-1,5.38342E-1,2E0,6.983696E-1,4.0896872E-1,2.3471553E-2,5.459928E-2,3.5260566E-2,3.7586617E-1,2.0690924E-1,-2.4055466E-2,4.489354E-1,4.1236535E-2,2.452984E-2,5.251896E-1,3.6611328E-1,3.7676945E-1,6.467788E-3,5.5266853E-2,1.5603821E-2,1.31167E-1,-4.2125285E-2,-7.7810264E-3,2.026065E-2,-1.830101E-2,-3.3923804E-3,4.9645044E-2,-4.269408E-2,-9.6272206E-4,4.276763E-3,-2.7256522E-2],"split_indices":[19,4,10,16,19,15,16,0,0,0,5,2,0,11,2,0,4,10,15,0,24,0,6,0,0,0,0,0,0,0,0,0,0],"split_type":[0,0,0,0,0,0,0,0,0,0,0,0,0,0,0,0,0,0,0,0,0,0,0,0,0,0,0,0,0,0,0,0,0],"sum_hessian":[4.5497513E2,1.2306189E2,3.3191324E2,2.0725325E1,1.0233656E2,8.000167E1,2.5191158E2,1.0663867E1,1.0061458E1,1.6423235E1,8.591333E1,6.2876038E1,1.7125635E1,1.467434E2,1.0516818E2,1.2898991E1,7.3014336E1,3.722698E1,2.5649055E1,1.0303692E1,1.3643971E2,1.0937547E1,9.423064E1,1.2531313E1,6.0483025E1,1.003401E1,2.719297E1,1.2163461E1,1.3485596E1,1.2614984E2,1.0289867E1,1.0014817E1,8.421582E1],"tree_param":{"num_deleted":"0","num_feature":"30","num_nodes":"33","size_leaf_vector":"1"}},{"base_weights":[-2.651918E-1,-1.4509938E-2,-4.3852243E-1,1.4928284E-1,-5.355265E-1,-2.4549478E-1,-5.941199E-1,3.7640437E-2,8.095498E-2,-9.793491E-3,-7.804687E-1,-4.9505422E-1,1.9807074E-2,-6.6671357E-3,-6.4964044E-1,1.7374995E-3,3.555397E-2,-2.2372128E-2,-4.8427343E-2,1.3205018E-3,-6.035755E-1,3.3992823E-2,-1.4585142E-1,-1.7277344E-1,-7.398965E-1,2.0858815E-2,-6.75662E-3,-1.3197762E-2,-3.7645224E-2,2.1791623E-3,-3.2360177E-2,1.548779E-2,-3.1937186E-2,-4.008731E-2,-1.4098221E-2],"categories":[],"categories_nodes":[],"categories_segments":[],"categories_sizes":[],"default_left":[0,0,0,0,0,0,0,0,0,0,0,0,0,0,0,0,0,0,0,0,0,0,0,0,1,0,0,0,0,0,0,0,0,0,0],"id":9,"left_children":[1,3,5,7,9,11,13,-1,15,-1,17,19,21,-1,23,25,-1,-1,-1,-1,27,-1,29,31,33,-1,-1,-1,-1,-1,-1,-1,-1,-1,-1],"loss_changes":[1.9327246E1,1.57856865E1,7.681572E0,5.6418533E0,3.4329643E0,7.972898E0,3.5408096E0,0E0,6.2825165E0,0E0,1.0045414E0,3.5730667E0,6.5728445E0,0E0,5.3255386E0,6.5802646E0,0E0,0E0,0E0,0E0,2.3056488E0,0E0,4.6130238E0,5.173526E0,2.719967E0,0E0,0E0,0E0,0E0,0E0,0E0,0E0,0E0,0E0,0E0],"parents":[2147483647,0,0,1,1,2,2,3,3,4,4,5,5,6,6,8,8,10,10,11,11,12,12,14,14,15,15,20,20,22,22,23,23,24,24],"right_children":[2,4,6,8,10,12,14,-1,16,-1,18,20,22,-1,24,26,-1,-1,-1,-1,28,-1,30,32,34,-1,-1,-1,-1,-1,-1,-1,-1,-1,-1],"split_conditions":[5.528625E-1,7.945158E-1,3.5721797E-1,2.245656E-1,4.165945E-1,1E0,3.3679828E-1,3.7640437E-2,5.3234124E-1,-9.793491E-3,6.55048E-1,5.4260522E-2,5.497959E3,-6.6671357E-3,1.5839343E-1,4.489354E-1,3.555397E-2,-2.2372128E-2,-4.8427343E-2,1.3205018E-3,1.3762401E-1,3.3992823E-2,6.870968E-1,7.567549E-1,1.9E1,2.0858815E-2,-6.75662E-3,-1.3197762E-2,-3.7645224E-2,2.1791623E-3,-3.2360177E-2,1.548779E-2,-3.1937186E-2,-4.008731E-2,-1.4098221E-2],"split_indices":[12,11,18,12,12,1,4,0,12,0,7,17,28,0,6,11,0,0,0,0,2,0,7,7,21,0,0,0,0,0,0,0,0,0,0],"split_type":[0,0,0,0,0,0,0,0,0,0,0,0,0,0,0,0,0,0,0,0,0,0,0,0,0,0,0,0,0,0,0,0,0,0,0],"sum_hessian":[4.4499622E2,1.8258736E2,2.6240887E2,1.393129E2,4.3274464E1,1.18555016E2,1.4385385E2,1.3000555E1,1.2631234E2,1.905675E1,2.4217716E1,6.0837967E1,5.771705E1,1.6028936E1,1.2782492E2,1.13237854E2,1.307449E1,1.0152178E1,1.4065537E1,1.0451552E1,5.0386414E1,1.1077914E1,4.6639137E1,2.0983095E1,1.0684182E2,2.7735481E1,8.550237E1,1.6438175E1,3.394824E1,3.4367188E1,1.2271948E1,1.0367652E1,1.0615443E1,9.327467E1,1.3567147E1],"tree_param":{"num_deleted":"0","num_feature":"30","num_nodes":"35","size_leaf_vector":"1"}},{"base_weights":[-2.2175942E-1,1.09182205E-2,-4.2918563E-1,2.4219164E-1,-2.6893458E-1,-5.813914E-1,-1.6507201E-1,6.8678397E-1,9.105774E-2,1.4855524E-2,-3.6431572E-1,-1.5559089E-1,-7.121047E-1,-4.1352573E-1,1.9745651E-1,7.129017E-2,6.2698773E-3,3.5893865E-2,-8.997041E-3,1.1525824E-2,-4.5356178E-1,1.7069979E-1,-4.439154E-2,-8.3485836E-1,-2.8707156E-1,-7.1872157E-1,-4.3968257E-2,4.7559178E-1,-9.998994E-3,3.493994E-2,-8.630336E-3,-2.6339317E-2,-0E0,-2.917646E-3,2.3318904E-2,-2.0910434E-2,-4.4434678E-2,-3.1484302E-2,1.2130224E-3,-1.3434424E-2,-4.7459263E-2,1.50260655E-2,-1.77372E-2,3.930936E-2,6.102273E-3],"categories":[],"categories_nodes":[],"categories_segments":[],"categories_sizes":[],"default_left":[0,0,0,0,0,0,0,0,0,0,0,0,1,0,0,0,0,0,0,0,0,0,0,0,0,0,0,0,0,0,0,0,0,0,0,0,0,0,0,0,0,0,0,0,0],"id":10,"left_children":[1,3,5,7,9,11,13,15,17,-1,19,21,23,25,27,-1,-1,-1,29,-1,31,33,-1,35,37,39,41,43,-1,-1,-1,-1,-1,-1,-1,-1,-1,-1,-1,-1,-1,-1,-1,-1,-1],"loss_changes":[2.128483E1,1.3534365E1,9.19191E0,7.5658894E0,5.214909E0,7.9905853E0,7.9201193E0,1.16042185E1,5.528179E0,0E0,4.4501925E0,8.827772E0,5.497017E0,5.7549343E0,4.080477E0,0E0,0E0,0E0,8.845694E0,0E0,2.327897E0,1.8056474E0,0E0,1.4328232E0,2.9374402E0,2.553814E0,2.7590392E0,2.1749477E0,0E0,0E0,0E0,0E0,0E0,0E0,0E0,0E0,0E0,0E0,0E0,0E0,0E0,0E0,0E0,0E0,0E0],"parents":[2147483647,0,0,1,1,2,2,3,3,4,4,5,5,6,6,7,7,8,8,10,10,11,11,12,12,13,13,14,14,18,18,20,20,21,21,23,23,24,24,25,25,26,26,27,27],"right_children":[2,4,6,8,10,12,14,16,18,-1,20,22,24,26,28,-1,-1,-1,30,-1,32,34,-1,36,38,40,42,44,-1,-1,-1,-1,-1,-1,-1,-1,-1,-1,-1,-1,-1,-1,-1,-1,-1],"split_conditions":[6.146306E-1,7E0,1E0,1.7871422E-1,1.523201E-1,1.10242315E-1,4.4758412E-1,4E0,3.32993E-1,1.4855524E-2,2.364286E-1,7.2111875E-1,-3.306553E-2,4.21894E-1,2.4194112E-1,7.129017E-2,6.2698773E-3,3.5893865E-2,3.23567E-1,1.1525824E-2,9.219021E-1,6.137548E-1,-4.439154E-2,4.2987695E-1,2.0889099E-1,6.885831E-1,6.500217E-1,1.0916612E0,-9.998994E-3,3.493994E-2,-8.630336E-3,-2.6339317E-2,-0E0,-2.917646E-3,2.3318904E-2,-2.0910434E-2,-4.4434678E-2,-3.1484302E-2,1.2130224E-3,-1.3434424E-2,-4.7459263E-2,1.50260655E-2,-1.77372E-2,3.930936E-2,6.102273E-3],"split_indices":[10,19,1,18,16,2,16,19,10,0,15,7,22,3,17,0,0,0,4,0,4,7,0,12,17,10,5,0,0,0,0,0,0,0,0,0,0,0,0,0,0,0,0,0,0],"split_type":[0,0,0,0,0,0,0,0,0,0,0,0,0,0,0,0,0,0,0,0,0,0,0,0,0,0,0,0,0,0,0,0,0,0,0,0,0,0,0,0,0,0,0,0,0],"sum_hessian":[4.390497E2,2.0714867E2,2.3190106E2,1.1368776E2,9.34609E1,1.4611607E2,8.578498E1,2.7775215E1,8.5912544E1,1.3021374E1,8.043953E1,3.5013718E1,1.11102356E2,5.0981033E1,3.480395E1,1.1248959E1,1.6526257E1,1.1113528E1,7.479901E1,1.0141589E1,7.0297935E1,2.4656805E1,1.03569145E1,8.52747E1,2.5827652E1,2.725627E1,2.3724766E1,2.0507374E1,1.4296576E1,1.3314873E1,6.1484142E1,6.024307E1,1.0054872E1,1.4155457E1,1.0501348E1,1.0973418E1,7.4301285E1,1.19621725E1,1.386548E1,1.0111337E1,1.7144932E1,1.1115096E1,1.260967E1,1.0114808E1,1.0392566E1],"tree_param":{"num_deleted":"0","num_feature":"30","num_nodes":"45","size_leaf_vector":"1"}},{"base_weights":[-2.2271822E-1,7.415171E-2,-3.59291E-1,-3.5030124E-1,2.0728502E-1,-5.1476794E-1,-1.3166164E-1,-7.014498E-1,2.009316E-2,5.961574E-1,5.2159287E-2,1.652584E-2,-5.72063E-1,-3.3533317E-1,1.590368E-1,-2.020282E-2,-4.4715546E-2,7.618698E-2,-1.839736E-2,2.95842E-1,-3.916063E-1,-6.340106E-1,-4.1669966E-3,5.6795795E-2,-5.474637E-1,4.17809E-1,-1.7751342E-1,2.4924401E-2,-8.943761E-3,-3.4313597E-2,2.4117304E-3,-3.469492E-2,-9.519636E-3,2.542306E-2,-1.7024292E-2,-1.3571735E-2,-4.7326606E-2,4.4615533E-2,-0E0,-2.1030644E-2,3.5941263E-3],"categories":[],"categories_nodes":[],"categories_segments":[],"categories_sizes":[],"default_left":[0,0,0,0,0,0,0,0,0,0,0,0,1,0,0,0,0,0,0,0,0,1,0,0,0,0,0,0,0,0,0,0,0,0,0,0,0,0,0,0,0],"id":11,"left_children":[1,3,5,7,9,11,13,15,-1,17,19,-1,21,23,25,-1,-1,-1,-1,27,29,31,-1,33,35,37,39,-1,-1,-1,-1,-1,-1,-1,-1,-1,-1,-1,-1,-1,-1],"loss_changes":[1.7787367E1,7.879313E0,1.0483158E1,9.090862E0,6.3083625E0,8.815296E0,7.373211E0,8.3456707E-1,0E0,2.749951E1,8.451351E0,0E0,4.925873E0,6.156371E0,4.564818E0,0E0,0E0,0E0,0E0,4.982163E0,3.6791978E0,3.7039528E0,0E0,4.9242597E0,4.871523E0,5.8570304E0,1.449081E0,0E0,0E0,0E0,0E0,0E0,0E0,0E0,0E0,0E0,0E0,0E0,0E0,0E0,0E0],"parents":[2147483647,0,0,1,1,2,2,3,3,4,4,5,5,6,6,7,7,9,9,10,10,12,12,13,13,14,14,19,19,20,20,21,21,23,23,24,24,25,25,26,26],"right_children":[2,4,6,8,10,12,14,16,-1,18,20,-1,22,24,26,-1,-1,-1,-1,28,30,32,-1,34,36,38,40,-1,-1,-1,-1,-1,-1,-1,-1,-1,-1,-1,-1,-1,-1],"split_conditions":[5.371777E-1,5.2257633E0,1E0,6.694097E-1,1.0842341E1,2.8597E-1,4.4758412E-1,5.0137985E-1,2.009316E-2,5.091989E-1,4.0532804E-1,1.652584E-2,8.179286E-2,5.856677E-1,6.702428E-1,-2.020282E-2,-4.4715546E-2,7.618698E-2,-1.839736E-2,8E0,7.2816694E-1,4.3773445E-1,-4.1669966E-3,6.3019526E-1,9E0,1.0305558E0,7.720643E-1,2.4924401E-2,-8.943761E-3,-3.4313597E-2,2.4117304E-3,-3.469492E-2,-9.519636E-3,2.542306E-2,-1.7024292E-2,-1.3571735E-2,-4.7326606E-2,4.4615533E-2,-0E0,-2.1030644E-2,3.5941263E-3],"split_indices":[10,9,1,7,9,4,16,7,0,15,18,0,23,12,11,0,0,0,0,19,4,25,0,10,19,0,11,0,0,0,0,0,0,0,0,0,0,0,0,0,0],"split_type":[0,0,0,0,0,0,0,0,0,0,0,0,0,0,0,0,0,0,0,0,0,0,0,0,0,0,0,0,0,0,0,0,0,0,0,0,0,0,0,0,0],"sum_hessian":[4.3635352E2,1.3740321E2,2.989503E2,3.2238556E1,1.05164665E2,1.7661604E2,1.2233424E2,2.2114676E1,1.0123879E1,2.8994059E1,7.617061E1,1.0797945E1,1.6581808E2,7.204673E1,5.0287518E1,1.0121228E1,1.1993448E1,1.4533945E1,1.4460114E1,4.9530735E1,2.6639872E1,1.46719E2,1.9099098E1,2.5384203E1,4.6662525E1,2.8460236E1,2.1827282E1,3.4825214E1,1.4705518E1,1.5753264E1,1.0886608E1,1.2857231E2,1.8146675E1,1.1865874E1,1.3518329E1,2.8724806E1,1.793772E1,1.2814978E1,1.5645259E1,1.09085655E1,1.0918716E1],"tree_param":{"num_deleted":"0","num_feature":"30","num_nodes":"41","size_leaf_vector":"1"}},{"base_weights":[-1.8847731E-1,9.6997246E-2,-3.4042194E-1,4.5208413E-2,2.3258645E-2,-3.7923813E-1,3.0599317E-2,-1.4013268E-1,3.4443215E-1,-1.1327981E-1,-4.6769738E-1,1.6917601E-1,-3.4049743E-1,1.1065426E-1,4.9221665E-2,2.0690324E-2,-2.363357E-1,1.5245016E-2,-5.10975E-1,2.4448581E-2,-1.0951158E-2,-4.250172E-3,-3.174023E-2,1.974216E-2,-1.3372828E-2,6.873625E-3,-1.9152852E-2,-6.970922E-3,-3.0266836E-2],"categories":[],"categories_nodes":[],"categories_segments":[],"categories_sizes":[],"default_left":[0,0,0,0,0,0,0,0,0,0,0,0,0,0,0,0,0,0,0,0,0,0,0,0,0,0,0,0,0],"id":12,"left_children":[1,3,5,-1,7,9,-1,11,13,15,17,19,21,23,-1,-1,25,-1,27,-1,-1,-1,-1,-1,-1,-1,-1,-1,-1],"loss_changes":[1.9108997E1,8.999812E0,1.0822506E1,0E0,7.4911237E0,6.395733E0,0E0,5.9160304E0,6.9914365E0,4.6613183E0,7.0957527E0,4.7926087E0,4.2148485E0,4.044408E0,0E0,0E0,3.261195E0,0E0,6.729191E0,0E0,0E0,0E0,0E0,0E0,0E0,0E0,0E0,0E0,0E0],"parents":[2147483647,0,0,1,1,2,2,4,4,5,5,7,7,8,8,9,9,10,10,11,11,12,12,13,13,16,16,18,18],"right_children":[2,4,6,-1,8,10,-1,12,14,16,18,20,22,24,-1,-1,26,-1,28,-1,-1,-1,-1,-1,-1,-1,-1,-1,-1],"split_conditions":[5.469557E-1,2E0,5.869202E0,4.5208413E-2,6.8130726E-1,5E0,3.0599317E-2,4.0831992E-1,2.3566496E1,7.370515E-2,1.2698658E-2,7E0,5.880757E-1,6.481989E-1,4.9221665E-2,2.0690324E-2,6.241446E-1,1.5245016E-2,4.3658248E-1,2.4448581E-2,-1.0951158E-2,-4.250172E-3,-3.174023E-2,1.974216E-2,-1.3372828E-2,6.873625E-3,-1.9152852E-2,-6.970922E-3,-3.0266836E-2],"split_indices":[10,19,0,0,5,19,0,5,9,2,17,19,11,11,0,0,10,0,22,0,0,0,0,0,0,0,0,0,0],"split_type":[0,0,0,0,0,0,0,0,0,0,0,0,0,0,0,0,0,0,0,0,0,0,0,0,0,0,0,0,0],"sum_hessian":[4.3821732E2,1.5211888E2,2.8609842E2,1.1677253E1,1.4044164E2,2.75574E2,1.0524429E1,9.325309E1,4.7188534E1,6.963203E1,2.0594197E2,3.6524998E1,5.6728096E1,3.553687E1,1.1651665E1,1.2578602E1,5.705342E1,1.048084E1,1.9546114E2,2.0025856E1,1.6499142E1,3.1238192E1,2.5489904E1,2.0413935E1,1.5122936E1,1.5907269E1,4.1146152E1,4.0302826E1,1.5515831E2],"tree_param":{"num_deleted":"0","num_feature":"30","num_nodes":"29","size_leaf_vector":"1"}},{"base_weights":[-2.3724805E-1,-2.3577828E-2,-4.5746857E-1,1.8630542E-1,-2.7973393E-1,1.018843E-2,-5.3239197E-1,9.497106E-2,4.8736658E-2,-1.3740654E-1,-5.4323316E-1,-1.804185E-2,2.9019386E-2,-2.1280223E-1,-6.271253E-1,-1.3380666E-1,3.0160192E-1,-2.940727E-1,1.3147809E-2,2.8629121E-3,-8.961671E-1,1.7608734E-2,-2.774925E-2,-9.4735366E-1,-5.18679E-1,2.0897271E-2,-1.4760891E-2,4.6741003E-3,5.837151E-2,-2.8742552E-2,1.0650125E-3,-3.136536E-2,-5.3663023E-2,2.4502218E-2,-1.45500405E-2,-5.5057723E-2,-2.8393073E-2,-2.9553367E-2,-8.69689E-3],"categories":[],"categories_nodes":[],"categories_segments":[],"categories_sizes":[],"default_left":[0,0,0,0,0,0,0,0,0,0,0,0,0,0,0,0,1,0,0,0,0,0,0,0,0,0,0,0,0,0,0,0,0,0,0,0,0,0,0],"id":13,"left_children":[1,3,5,7,9,11,13,15,-1,17,19,-1,-1,21,23,25,27,29,-1,-1,31,33,-1,35,37,-1,-1,-1,-1,-1,-1,-1,-1,-1,-1,-1,-1,-1,-1],"loss_changes":[2.0366102E1,1.1975123E1,7.537445E0,8.599068E0,3.6230392E0,6.636298E0,5.3593216E0,5.291234E0,0E0,4.2691746E0,7.474533E0,0E0,0E0,3.5224423E0,4.269993E0,4.8319473E0,1.0344766E1,4.375582E0,0E0,0E0,2.0302773E-1,4.100831E0,0E0,1.2103348E0,2.5163002E0,0E0,0E0,0E0,0E0,0E0,0E0,0E0,0E0,0E0,0E0,0E0,0E0,0E0,0E0],"parents":[2147483647,0,0,1,1,2,2,3,3,4,4,5,5,6,6,7,7,9,9,10,10,13,13,14,14,15,15,16,16,17,17,20,20,21,21,23,23,24,24],"right_children":[2,4,6,8,10,12,14,16,-1,18,20,-1,-1,22,24,26,28,30,-1,-1,32,34,-1,36,38,-1,-1,-1,-1,-1,-1,-1,-1,-1,-1,-1,-1,-1,-1],"split_conditions":[6.258712E-1,7E0,1.7991135E0,7.2829497E-1,6.793211E-1,1E0,5E0,5.557386E-1,4.8736658E-2,4.9243584E-1,3.076219E-1,-1.804185E-2,2.9019386E-2,7.5656515E-1,2.1073909E-1,3.4057108E-1,3.9871448E-1,1.5911517E0,1.3147809E-2,2.8629121E-3,7.5368357E-1,1.034262E-1,-2.774925E-2,1E0,3.9685607E-1,2.0897271E-2,-1.4760891E-2,4.6741003E-3,5.837151E-2,-2.8742552E-2,1.0650125E-3,-3.136536E-2,-5.3663023E-2,2.4502218E-2,-1.45500405E-2,-5.5057723E-2,-2.8393073E-2,-2.9553367E-2,-8.69689E-3],"split_indices":[10,19,9,6,11,1,19,11,0,18,18,0,0,11,16,10,25,0,0,0,4,2,0,1,2,0,0,0,0,0,0,0,0,0,0,0,0,0,0],"split_type":[0,0,0,0,0,0,0,0,0,0,0,0,0,0,0,0,0,0,0,0,0,0,0,0,0,0,0,0,0,0,0,0,0,0,0,0,0,0,0],"sum_hessian":[4.3307037E2,2.205965E2,2.1247388E2,1.2118503E2,9.9411476E1,2.9274935E1,1.8319894E2,1.0972175E2,1.1463278E1,6.578117E1,3.36303E1,1.7851114E1,1.14238205E1,4.2871326E1,1.4032762E2,5.2007988E1,5.7713764E1,4.765035E1,1.8130827E1,1.2654319E1,2.0975979E1,2.6012165E1,1.6859161E1,3.330989E1,1.0701773E2,1.1271101E1,4.0736885E1,4.751581E1,1.0197954E1,2.4940235E1,2.2710114E1,1.0357828E1,1.0618151E1,1.0173762E1,1.5838404E1,2.216264E1,1.1147251E1,8.76157E1,1.9402027E1],"tree_param":{"num_deleted":"0","num_feature":"30","num_nodes":"39","size_leaf_vector":"1"}},{"base_weights":[-1.8184666E-1,8.894947E-2,-3.2192925E-1,1.5970755E-1,-3.784697E-2,2.9128356E-2,-3.5749874E-1,2.3132062E-1,-2.4199266E-2,1.2025702E-2,-3.9723337E-1,4.0949094E-1,-2.7900562E-2,1.28751835E-2,-4.3326926E-1,1.3575807E-2,5.085797E-2,-2.099076E-2,7.0095444E-3,-2.3934355E-2,2.8353522E-3],"categories":[],"categories_nodes":[],"categories_segments":[],"categories_sizes":[],"default_left":[0,1,0,1,0,0,0,0,0,0,0,1,0,0,0,0,0,0,0,0,0],"id":14,"left_children":[1,3,5,7,-1,-1,9,11,-1,-1,13,15,17,-1,19,-1,-1,-1,-1,-1,-1],"loss_changes":[1.6353691E1,8.86285E0,9.312704E0,6.385235E0,0E0,0E0,6.614357E0,5.7661605E0,0E0,0E0,6.1966515E0,5.769782E0,3.4549155E0,0E0,5.505123E0,0E0,0E0,0E0,0E0,0E0,0E0],"parents":[2147483647,0,0,1,1,2,2,3,3,6,6,7,7,10,10,11,11,12,12,14,14],"right_children":[2,4,6,8,-1,-1,10,12,-1,-1,14,16,18,-1,20,-1,-1,-1,-1,-1,-1],"split_conditions":[5.469557E-1,1.24595016E-1,2.296698E3,1.7226869E3,-3.784697E-2,2.9128356E-2,1.4280028E-2,7E0,-2.4199266E-2,1.2025702E-2,3.780359E0,3.1748008E3,6.086996E0,1.28751835E-2,4.091042E0,1.3575807E-2,5.085797E-2,-2.099076E-2,7.0095444E-3,-2.3934355E-2,2.8353522E-3],"split_indices":[10,22,28,27,0,0,17,19,0,0,20,28,9,0,0,0,0,0,0,0,0],"split_type":[0,0,0,0,0,0,0,0,0,0,0,0,0,0,0,0,0,0,0,0,0],"sum_hessian":[4.2874197E2,1.4605385E2,2.826881E2,1.356373E2,1.0416561E1,1.0007881E1,2.7268024E2,1.2277422E2,1.28630705E1,1.6517622E1,2.561626E2,7.264752E1,5.0126698E1,1.2897994E1,2.4326462E2,6.051794E1,1.2129584E1,1.47751E1,3.53516E1,2.228362E2,2.0428425E1],"tree_param":{"num_deleted":"0","num_feature":"30","num_nodes":"21","size_leaf_vector":"1"}},{"base_weights":[-1.977101E-1,-6.836887E-2,-5.053087E-1,5.692002E-1,-1.19901426E-1,-2.8855512E-1,-7.6585406E-1,5.5517465E-2,-1.7307753E-3,4.740414E-1,-1.8826334E-1,2.251135E-2,-4.6499553E-1,-1.6567245E-2,-8.499401E-1,4.4801496E-3,5.4224033E-2,-3.5876283E-1,-0E0,-1.9316405E-1,-7.2044903E-1,-9.519979E-1,-2.1573724E-2,-3.1241223E-2,-1.0455996E-2,3.9940458E-2,-4.534434E-3,-2.7151773E-2,6.016403E-3,-1.9717835E-2,-4.6121385E-2,-5.4655384E-2,-3.4548603E-2],"categories":[],"categories_nodes":[],"categories_segments":[],"categories_sizes":[],"default_left":[0,0,0,0,0,0,0,0,0,0,0,0,0,0,0,0,0,0,0,0,0,0,0,0,0,0,0,0,0,0,0,0,0],"id":15,"left_children":[1,3,5,7,9,11,13,-1,-1,15,17,-1,19,-1,21,-1,-1,23,25,27,29,31,-1,-1,-1,-1,-1,-1,-1,-1,-1,-1,-1],"loss_changes":[1.6961847E1,9.983329E0,6.8175926E0,7.562926E0,1.1488258E1,9.4485E0,1.6694031E0,0E0,0E0,6.634136E0,8.143622E0,0E0,3.7835875E0,0E0,1.4418755E0,0E0,0E0,5.081705E0,8.884237E0,3.3499827E0,1.430748E0,4.0912247E-1,0E0,0E0,0E0,0E0,0E0,0E0,0E0,0E0,0E0,0E0,0E0],"parents":[2147483647,0,0,1,1,2,2,3,3,4,4,5,5,6,6,9,9,10,10,12,12,14,14,17,17,18,18,19,19,20,20,21,21],"right_children":[2,4,6,8,10,12,14,-1,-1,16,18,-1,20,-1,22,-1,-1,24,26,28,30,32,-1,-1,-1,-1,-1,-1,-1,-1,-1,-1,-1],"split_conditions":[9E0,2E0,6.537909E-1,3.164803E-1,3.7739125E-1,1.6891171E3,4.9110928E0,5.5517465E-2,-1.7307753E-3,6.296621E-1,1E0,2.251135E-2,6.348009E-1,-1.6567245E-2,2.1345294E0,4.4801496E-3,5.4224033E-2,3.357782E-1,1.404403E-1,4.9210942E-1,3.4756702E-1,6.182816E-1,-2.1573724E-2,-3.1241223E-2,-1.0455996E-2,3.9940458E-2,-4.534434E-3,-2.7151773E-2,6.016403E-3,-1.9717835E-2,-4.6121385E-2,-5.4655384E-2,-3.4548603E-2],"split_indices":[19,19,12,3,10,27,20,0,0,5,1,0,5,0,0,0,0,16,6,12,3,15,0,0,0,0,0,0,0,0,0,0,0],"split_type":[0,0,0,0,0,0,0,0,0,0,0,0,0,0,0,0,0,0,0,0,0,0,0,0,0,0,0,0,0,0,0,0,0],"sum_hessian":[4.276461E2,3.021453E2,1.2550081E2,2.1698763E1,2.8044653E2,6.9867645E1,5.5633163E1,1.1088132E1,1.0610631E1,2.8183676E1,2.5226285E2,1.3060965E1,5.6806683E1,1.0014371E1,4.5618793E1,1.8097164E1,1.0086512E1,1.3201172E2,1.2025114E2,2.8561563E1,2.8245117E1,3.5457317E1,1.0161474E1,4.6137184E1,8.587453E1,1.1508567E1,1.0874257E2,1.3302331E1,1.5259233E1,1.2121939E1,1.6123177E1,2.0697481E1,1.4759838E1],"tree_param":{"num_deleted":"0","num_feature":"30","num_nodes":"33","size_leaf_vector":"1"}},{"base_weights":[-1.823235E-1,-5.417836E-2,-4.6069643E-1,-1.7884517E-1,1.8787073E-1,1.2027091E-2,-5.3457355E-1,-4.2052034E-2,-5.717436E-1,-2.0153594E-1,4.7394428E-1,6.3618845E-3,-6.560361E-1,2.750995E-1,-1.7082925E-1,-8.071678E-1,-8.355567E-3,-5.4780346E-1,1.618204E-2,8.168454E-1,2.0821506E-1,2.6295144E-2,-2.4570225E-2,-7.988608E-1,-3.9451113E-1,-2.5419001E-3,3.9892178E-2,-2.2111582E-3,-2.9153395E-2,-2.7104383E-2,-4.9897127E-2,-1.3217074E-3,-4.3547314E-2,6.611204E-2,1.4714777E-2,-2.0621164E-2,2.4758315E-2,-2.7871206E-2,-4.9675606E-2,-4.0512804E-2,-4.334276E-3],"categories":[],"categories_nodes":[],"categories_segments":[],"categories_sizes":[],"default_left":[0,0,0,1,0,0,0,0,0,0,0,0,0,0,0,0,0,0,0,0,0,0,0,0,0,0,0,0,0,0,0,0,0,0,0,0,0,0,0,0,0],"id":16,"left_children":[1,3,5,7,9,-1,11,13,15,17,19,21,23,25,27,29,-1,31,-1,33,35,-1,-1,37,39,-1,-1,-1,-1,-1,-1,-1,-1,-1,-1,-1,-1,-1,-1,-1,-1],"loss_changes":[1.4960872E1,8.784809E0,7.022316E0,1.0245856E1,1.1130716E1,0E0,7.9740715E0,5.9117084E0,4.4710617E0,7.910789E0,4.9587755E0,6.1842747E0,3.241394E0,7.220303E0,5.2950897E0,8.6239815E-1,0E0,4.2744474E0,0E0,5.9353733E0,6.2413826E0,0E0,0E0,2.2249413E0,4.573164E0,0E0,0E0,0E0,0E0,0E0,0E0,0E0,0E0,0E0,0E0,0E0,0E0,0E0,0E0,0E0,0E0],"parents":[2147483647,0,0,1,1,2,2,3,3,4,4,6,6,7,7,8,8,9,9,10,10,11,11,12,12,13,13,14,14,15,15,17,17,19,19,20,20,23,23,24,24],"right_children":[2,4,6,8,10,-1,12,14,16,18,20,22,24,26,28,30,-1,32,-1,34,36,-1,-1,38,40,-1,-1,-1,-1,-1,-1,-1,-1,-1,-1,-1,-1,-1,-1,-1,-1],"split_conditions":[7.110403E-1,5.537528E-1,5.407522E2,1.0946285E0,3.615457E-1,1.2027091E-2,7.1085356E-2,4.9786964E-1,2.4592324E-1,7.7100366E-1,1.20278865E-1,7.9396453E0,6.435595E-1,2.0706366E1,7.3440313E-1,5.077419E-1,-8.355567E-3,6.6243345E-1,1.618204E-2,7.081622E-1,2.2214217E-1,2.6295144E-2,-2.4570225E-2,3.930095E-1,3.2325754E-1,-2.5419001E-3,3.9892178E-2,-2.2111582E-3,-2.9153395E-2,-2.7104383E-2,-4.9897127E-2,-1.3217074E-3,-4.3547314E-2,6.611204E-2,1.4714777E-2,-2.0621164E-2,2.4758315E-2,-2.7871206E-2,-4.9675606E-2,-4.0512804E-2,-4.334276E-3],"split_indices":[10,16,27,29,6,0,24,11,2,16,2,9,15,9,7,15,0,7,0,16,3,0,0,3,16,0,0,0,0,0,0,0,0,0,0,0,0,0,0,0,0],"split_type":[0,0,0,0,0,0,0,0,0,0,0,0,0,0,0,0,0,0,0,0,0,0,0,0,0,0,0,0,0,0,0,0,0,0,0,0,0,0,0,0,0],"sum_hessian":[4.2054242E2,2.8904047E2,1.3150195E2,1.9122484E2,9.7815636E1,1.2189568E1,1.19312386E2,1.4285085E2,4.8373985E1,4.1403145E1,5.6412495E1,2.1900866E1,9.741152E1,4.07007E1,1.0215015E2,2.9796028E1,1.857796E1,2.5040434E1,1.636271E1,2.356E1,3.2852493E1,1.0786689E1,1.1114176E1,6.142755E1,3.598397E1,2.5507748E1,1.5192953E1,7.918181E1,2.2968338E1,1.4296637E1,1.5499392E1,1.0113785E1,1.4926648E1,1.1101354E1,1.2458647E1,1.01384945E1,2.2713999E1,2.9372583E1,3.2054966E1,1.4475931E1,2.1508038E1],"tree_param":{"num_deleted":"0","num_feature":"30","num_nodes":"41","size_leaf_vector":"1"}},{"base_weights":[-1.8313001E-1,-1.4718309E-3,-3.6839265E-1,9.118955E-2,-3.9349893E-1,1.4656061E-1,-4.4988623E-1,-2.0844196E-1,1.9620626E-1,-6.180737E-1,1.2338164E-2,-8.940107E-3,2.7498413E-2,-3.1178212E-1,-6.9427186E-1,1.2709768E-2,-3.44869E-2,-1.14129536E-1,3.2994062E-1,-1.876459E-2,-4.4265512E-2,-2.2563262E-1,-3.6359396E-2,-8.210811E-3,-8.1538874E-1,-1.3527808E-2,2.7678862E-2,-1.7111983E-2,2.1377426E-2,2.2741785E-2,-6.281633E-3,-3.419941E-2,-7.0026363E-3,-4.633091E-2,-1.6183505E-2],"categories":[],"categories_nodes":[],"categories_segments":[],"categories_sizes":[],"default_left":[0,0,0,0,0,0,0,1,0,0,0,0,0,0,0,0,0,0,0,0,0,0,0,0,0,0,0,0,0,0,0,0,0,0,0],"id":17,"left_children":[1,3,5,7,9,11,13,15,17,19,-1,-1,-1,21,23,25,-1,27,29,-1,-1,31,-1,-1,33,-1,-1,-1,-1,-1,-1,-1,-1,-1,-1],"loss_changes":[1.3979564E1,7.7516456E0,8.738113E0,5.443389E0,6.062228E0,3.905443E0,5.697468E0,4.8456144E0,5.3684077E0,1.5294638E0,0E0,0E0,0E0,3.8897047E0,3.8298092E0,5.0102043E0,0E0,4.9620166E0,5.204197E0,0E0,0E0,3.6531224E0,0E0,0E0,2.3695602E0,0E0,0E0,0E0,0E0,0E0,0E0,0E0,0E0,0E0,0E0],"parents":[2147483647,0,0,1,1,2,2,3,3,4,4,5,5,6,6,7,7,8,8,9,9,13,13,14,14,15,15,17,17,18,18,21,21,24,24],"right_children":[2,4,6,8,10,12,14,16,18,20,-1,-1,-1,22,24,26,-1,28,30,-1,-1,32,-1,-1,34,-1,-1,-1,-1,-1,-1,-1,-1,-1,-1],"split_conditions":[6.2215894E-1,7.139843E-1,1.6959327E0,5.2257633E0,5.707855E-1,1E0,4.9243584E-1,2.7798877E2,8.492391E-2,4.8055744E-1,1.2338164E-2,-8.940107E-3,2.7498413E-2,9.529939E-1,1.1475441E0,2.057291E-1,-3.44869E-2,5.716269E-1,3.0847372E1,-1.876459E-2,-4.4265512E-2,3.0831158E-1,-3.6359396E-2,-8.210811E-3,3.9170998E-1,-1.3527808E-2,2.7678862E-2,-1.7111983E-2,2.1377426E-2,2.2741785E-2,-6.281633E-3,-3.419941E-2,-7.0026363E-3,-4.633091E-2,-1.6183505E-2],"split_indices":[10,15,9,9,10,1,18,27,2,10,0,0,0,4,29,2,0,6,9,0,0,15,0,0,17,0,0,0,0,0,0,0,0,0,0],"split_type":[0,0,0,0,0,0,0,0,0,0,0,0,0,0,0,0,0,0,0,0,0,0,0,0,0,0,0,0,0,0,0,0,0,0,0],"sum_hessian":[4.1550024E2,2.1057242E2,2.0492784E2,1.7073015E2,3.984228E1,2.7722908E1,1.7720493E2,4.380618E1,1.26923965E2,2.9637602E1,1.0204679E1,1.5516874E1,1.2206035E1,1.1493773E2,6.2267193E1,3.053939E1,1.32667885E1,3.8042862E1,8.88811E1,1.6985224E1,1.2652378E1,9.667296E1,1.826477E1,1.2173337E1,5.0093857E1,2.0249239E1,1.0290151E1,2.7158669E1,1.0884194E1,6.9930756E1,1.8950348E1,1.3926016E1,8.274695E1,3.99656E1,1.0128256E1],"tree_param":{"num_deleted":"0","num_feature":"30","num_nodes":"35","size_leaf_vector":"1"}},{"base_weights":[-1.6291691E-1,9.128048E-2,-3.0277443E-1,1.9627637E-1,-2.0326297E-1,4.8039574E-2,-4.238936E-1,3.7018955E-1,-6.880447E-2,9.4301365E-3,-4.423677E-1,-9.578541E-2,3.8235787E-2,-8.5220194E-1,-3.2341498E-1,5.591834E-1,-4.1545094E-3,-2.9511988E-1,1.5776288E-2,-8.422668E-3,-3.7057143E-2,-2.4337132E-1,2.5656546E-2,-4.918371E-2,-3.3522833E-2,-1.3703637E-1,-6.9705105E-1,5.543634E-2,1.3910221E-2,-1.5911805E-3,-3.018317E-2,5.9760683E-3,-2.24486E-2,-1.5199994E-2,5.687071E-3,-3.9608393E-2,-1.2044924E-2],"categories":[],"categories_nodes":[],"categories_segments":[],"categories_sizes":[],"default_left":[0,0,0,0,0,0,0,0,0,0,0,1,0,0,0,0,0,0,0,0,0,0,0,0,0,0,1,0,0,0,0,0,0,0,0,0,0],"id":18,"left_children":[1,3,5,7,9,11,13,15,17,-1,19,21,-1,23,25,27,-1,29,-1,-1,-1,31,-1,-1,-1,33,35,-1,-1,-1,-1,-1,-1,-1,-1,-1,-1],"loss_changes":[1.49515705E1,4.6562057E0,1.1568432E1,5.1644764E0,3.8074007E0,7.3771577E0,8.286556E0,5.859557E0,3.96323E0,0E0,1.8279371E0,5.422368E0,0E0,7.167053E-2,1.1322657E1,6.9309225E0,0E0,2.24872E0,0E0,0E0,0E0,3.705221E0,0E0,0E0,0E0,4.727147E0,2.0724373E0,0E0,0E0,0E0,0E0,0E0,0E0,0E0,0E0,0E0,0E0],"parents":[2147483647,0,0,1,1,2,2,3,3,4,4,5,5,6,6,7,7,8,8,10,10,11,11,13,13,14,14,15,15,17,17,21,21,25,25,26,26],"right_children":[2,4,6,8,10,12,14,16,18,-1,20,22,-1,24,26,28,-1,30,-1,-1,-1,32,-1,-1,-1,34,36,-1,-1,-1,-1,-1,-1,-1,-1,-1,-1],"split_conditions":[5.469557E-1,6.536313E-1,5E0,3.9116868E-1,2.621807E-1,3.2928877E0,5E0,1E1,5.9946924E-1,9.4301365E-3,4.8055744E-1,1.5429659E-1,3.8235787E-2,7.8653536E0,1.6235115E1,8.630327E-1,-4.1545094E-3,3.960964E-1,1.5776288E-2,-8.422668E-3,-3.7057143E-2,9.092496E-2,2.5656546E-2,-4.918371E-2,-3.3522833E-2,1E0,3.358181E-1,5.543634E-2,1.3910221E-2,-1.5911805E-3,-3.018317E-2,5.9760683E-3,-2.24486E-2,-1.5199994E-2,5.687071E-3,-3.9608393E-2,-1.2044924E-2],"split_indices":[10,15,19,3,18,0,8,8,3,0,10,22,0,9,9,0,0,18,0,0,0,17,0,0,0,1,25,0,0,0,0,0,0,0,0,0,0],"split_type":[0,0,0,0,0,0,0,0,0,0,0,0,0,0,0,0,0,0,0,0,0,0,0,0,0,0,0,0,0,0,0,0,0,0,0,0,0],"sum_hessian":[4.1818958E2,1.4829286E2,2.698967E2,1.0981888E2,3.847399E1,6.9210526E1,2.0068617E2,6.630106E1,4.351781E1,1.450118E1,2.397281E1,5.8247948E1,1.0962579E1,3.652312E1,1.6416306E2,4.6782284E1,1.9518784E1,2.769924E1,1.581857E1,1.3497208E1,1.0475603E1,4.7499756E1,1.0748193E1,1.8313074E1,1.8210049E1,1.1061837E2,5.3544685E1,1.4710129E1,3.2072155E1,1.57155695E1,1.198367E1,1.715422E1,3.0345533E1,6.651822E1,4.4100147E1,4.3515076E1,1.0029608E1],"tree_param":{"num_deleted":"0","num_feature":"30","num_nodes":"37","size_leaf_vector":"1"}},{"base_weights":[-1.5858518E-1,-6.2394114E-3,-3.282287E-1,4.299249E-2,-6.2057067E-2,3.7918698E-2,-3.9255196E-1,-5.024927E-1,2.184596E-2,-1.9704208E-1,-6.747479E-1,-5.0894003E-2,-1.8969682E-1,-5.431662E-2,4.9416146E-1,3.402123E-2,-3.0936447E-1,-8.125483E-1,9.384676E-3,1.1127379E-2,-3.140192E-2,2.4743447E-2,-6.2037404E-3,5.0588656E-2,-9.641338E-3,2.0841079E-2,-2.055516E-2,-4.4449538E-2,-2.0710021E-2],"categories":[],"categories_nodes":[],"categories_segments":[],"categories_sizes":[],"default_left":[0,0,0,0,0,0,0,0,0,0,1,0,0,0,0,0,0,1,0,0,0,0,0,0,0,0,0,0,0],"id":19,"left_children":[1,3,5,-1,7,-1,9,11,13,15,17,-1,19,21,23,-1,25,27,-1,-1,-1,-1,-1,-1,-1,-1,-1,-1,-1],"loss_changes":[1.0656227E1,1.0574706E1,1.39187355E1,0E0,7.7104745E0,0E0,9.999413E0,5.064872E0,6.3548775E0,1.1117712E1,9.150585E0,0E0,4.176195E0,5.8149123E0,9.002882E0,0E0,7.5020466E0,1.4842949E0,0E0,0E0,0E0,0E0,0E0,0E0,0E0,0E0,0E0,0E0,0E0],"parents":[2147483647,0,0,1,1,2,2,4,4,6,6,7,7,8,8,9,9,10,10,12,12,13,13,14,14,16,16,17,17],"right_children":[2,4,6,-1,8,-1,10,12,14,16,18,-1,20,22,24,-1,26,28,-1,-1,-1,-1,-1,-1,-1,-1,-1,-1,-1],"split_conditions":[6.702428E-1,1.0294036E0,8.236052E3,4.299249E-2,4.285771E-1,3.7918698E-2,4.8362824E-1,9.3493044E-2,5.8690184E-1,3.8926378E-1,2.9333197E-2,-5.0894003E-2,4.10977E0,3.0698776E-1,5.6231004E-1,3.402123E-2,4.1920266E-1,1.1441427E0,9.384676E-3,1.1127379E-2,-3.140192E-2,2.4743447E-2,-6.2037404E-3,5.0588656E-2,-9.641338E-3,2.0841079E-2,-2.055516E-2,-4.4449538E-2,-2.0710021E-2],"split_indices":[11,29,26,0,22,0,18,2,3,4,24,0,20,11,12,0,5,29,0,0,0,0,0,0,0,0,0,0,0],"split_type":[0,0,0,0,0,0,0,0,0,0,0,0,0,0,0,0,0,0,0,0,0,0,0,0,0,0,0,0,0],"sum_hessian":[4.1269476E2,2.1828949E2,1.9440527E2,1.2235917E1,2.0605357E2,1.0175048E1,1.8423022E2,3.2364445E1,1.7368913E2,1.1004317E2,7.418706E1,1.1251593E1,2.111285E1,1.5015016E2,2.3538979E1,1.1812828E1,9.823034E1,6.411638E1,1.0070679E1,1.1016446E1,1.0096405E1,1.6074306E1,1.3407585E2,1.3237771E1,1.03012085E1,1.1569587E1,8.666075E1,5.2549473E1,1.1566908E1],"tree_param":{"num_deleted":"0","num_feature":"30","num_nodes":"29","size_leaf_vector":"1"}},{"base_weights":[-1.5015566E-1,1.8705946E-1,-2.9074392E-1,7.209417E-1,6.6235214E-2,-5.179031E-2,-4.5224953E-1,1.7083159E-2,5.014459E-2,1.5423207E-1,-2.3310414E-2,8.720855E-2,-6.5519947E-1,-5.1938957E-1,4.786258E-3,-1.8184243E-2,2.4050437E-1,-5.464695E-2,6.002697E-1,-4.0519364E-2,-2.0592958E-2,-0E0,-5.910893E-1,5.5572246E-3,3.391799E-2,-2.0399904E-2,1.3118071E-2,1.45070525E-2,4.2642515E-2,-1.7991638E-2,-3.6369942E-2],"categories":[],"categories_nodes":[],"categories_segments":[],"categories_sizes":[],"default_left":[0,0,0,0,0,0,1,0,0,0,0,1,0,0,0,0,0,0,0,0,0,0,0,0,0,0,0,0,0,0,0],"id":20,"left_children":[1,3,5,7,9,11,13,-1,-1,15,-1,17,19,21,-1,-1,23,25,27,-1,-1,-1,29,-1,-1,-1,-1,-1,-1,-1,-1],"loss_changes":[1.965081E1,7.7406216E0,1.1201881E1,1.9026098E0,4.759115E0,1.0112746E1,6.4923096E0,0E0,0E0,3.9774606E0,0E0,7.193751E0,3.964119E-1,5.7801857E0,0E0,0E0,4.129532E0,8.775453E0,1.3134189E0,0E0,0E0,0E0,3.9306564E0,0E0,0E0,0E0,0E0,0E0,0E0,0E0,0E0],"parents":[2147483647,0,0,1,1,2,2,3,3,4,4,5,5,6,6,9,9,11,11,12,12,13,13,16,16,17,17,18,18,22,22],"right_children":[2,4,6,8,10,12,14,-1,-1,16,-1,18,20,22,-1,-1,24,26,28,-1,-1,-1,30,-1,-1,-1,-1,-1,-1,-1,-1],"split_conditions":[5E0,3.5125855E-1,5.569582E-1,5.021664E-1,8.551618E-1,8.377698E-1,6.2796205E-2,1.7083159E-2,5.014459E-2,4.8436534E-1,-2.3310414E-2,2.8980094E-1,3.087161E-1,3.873767E-2,4.786258E-3,-1.8184243E-2,5.649734E-1,3.8502553E-1,5.933931E-1,-4.0519364E-2,-2.0592958E-2,-0E0,6.3076884E-1,5.5572246E-3,3.391799E-2,-2.0399904E-2,1.3118071E-2,1.45070525E-2,4.2642515E-2,-1.7991638E-2,-3.6369942E-2],"split_indices":[19,4,12,16,11,11,24,0,0,4,0,25,6,17,0,0,3,6,5,0,0,0,11,0,0,0,0,0,0,0,0],"split_type":[0,0,0,0,0,0,0,0,0,0,0,0,0,0,0,0,0,0,0,0,0,0,0,0,0,0,0,0,0,0,0],"sum_hessian":[4.12134E2,1.2095921E2,2.9117477E2,2.1253323E1,9.9705894E1,1.18213425E2,1.7296135E2,1.0156834E1,1.1096489E1,8.6335396E1,1.3370495E1,9.664129E1,2.1572142E1,1.5429158E2,1.8669765E1,1.170319E1,7.463221E1,7.6255974E1,2.0385317E1,1.1498121E1,1.0074019E1,1.8845293E1,1.3544629E2,5.8755672E1,1.5876535E1,3.6074364E1,4.018161E1,1.029245E1,1.0092867E1,5.1851257E1,8.359503E1],"tree_param":{"num_deleted":"0","num_feature":"30","num_nodes":"31","size_leaf_vector":"1"}},{"base_weights":[-1.2148144E-1,9.086432E-2,-2.764668E-1,2.1059683E-1,-5.212372E-1,1.9298036E-2,-3.3565414E-1,4.0678215E-1,-3.0832155E-2,-3.650106E-2,-6.8280236E-3,9.44878E-2,-4.402599E-1,9.631857E-2,6.5356624E-1,3.3797648E-2,-1.7242402E-1,-1.8914048E-1,2.4030587E-2,9.349948E-3,-5.027275E-1,-9.005137E-3,2.5792493E-2,4.2857986E-2,7.471223E-4,-3.5841778E-2,-1.5448699E-3,-3.2011155E-2,8.4187575E-3,5.750419E-3,-2.8467653E-2],"categories":[],"categories_nodes":[],"categories_segments":[],"categories_sizes":[],"default_left":[0,1,0,0,0,0,0,0,0,0,0,0,0,0,1,0,0,0,0,0,0,0,0,0,0,0,0,0,0,0,0],"id":21,"left_children":[1,3,5,7,9,-1,11,13,15,-1,-1,17,19,21,23,-1,25,27,-1,-1,29,-1,-1,-1,-1,-1,-1,-1,-1,-1,-1],"loss_changes":[1.3470312E1,1.2729322E1,9.391569E0,6.92856E0,2.0939217E0,0E0,9.869284E0,6.0234175E0,6.651643E0,0E0,0E0,4.8524203E0,6.999733E0,4.413334E0,5.679495E0,0E0,4.197545E0,4.2642245E0,0E0,0E0,6.694496E0,0E0,0E0,0E0,0E0,0E0,0E0,0E0,0E0,0E0,0E0],"parents":[2147483647,0,0,1,1,2,2,3,3,4,4,6,6,7,7,8,8,11,11,12,12,13,13,14,14,16,16,17,17,20,20],"right_children":[2,4,6,8,10,-1,12,14,16,-1,-1,18,20,22,24,-1,26,28,-1,-1,30,-1,-1,-1,-1,-1,-1,-1,-1,-1,-1],"split_conditions":[6.1362875E-1,3.3065243E0,3.651609E-1,5.5914813E-1,5.201944E-1,1.9298036E-2,1.3804352E-1,3.986498E-1,1.1094567E0,-3.650106E-2,-6.8280236E-3,2.5376886E-1,5.2609717E2,6.184605E-1,1.073879E0,3.3797648E-2,2.1290533E-1,6.4590603E-1,2.4030587E-2,9.349948E-3,2.1352085E-1,-9.005137E-3,2.5792493E-2,4.2857986E-2,7.471223E-4,-3.5841778E-2,-1.5448699E-3,-3.2011155E-2,8.4187575E-3,5.750419E-3,-2.8467653E-2],"split_indices":[11,20,5,12,16,0,23,12,29,0,0,17,27,5,29,0,16,7,0,0,15,0,0,0,0,0,0,0,0,0,0],"split_type":[0,0,0,0,0,0,0,0,0,0,0,0,0,0,0,0,0,0,0,0,0,0,0,0,0,0,0,0,0,0,0],"sum_hessian":[4.0697427E2,1.7161403E2,2.3536024E2,1.442222E2,2.739183E1,1.8712992E1,2.1664725E2,7.941712E1,6.480508E1,1.7004755E1,1.0387075E1,4.2211815E1,1.7443544E2,3.5966026E1,4.345109E1,1.006806E1,5.473702E1,2.4480658E1,1.7731157E1,1.5472852E1,1.5896259E2,2.1881235E1,1.4084792E1,3.256923E1,1.0881864E1,1.0309145E1,4.4427876E1,1.0597983E1,1.3882675E1,1.5258872E1,1.437037E2],"tree_param":{"num_deleted":"0","num_feature":"30","num_nodes":"31","size_leaf_vector":"1"}},{"base_weights":[-1.6335848E-1,1.5319076E-1,-2.663997E-1,4.1341927E-2,4.8943788E-2,-1.5507123E-1,-5.156689E-1,-3.0599537E-1,1.9057308E-1,-1.9764918E-1,3.0528236E-2,-4.393537E-3,-5.949056E-1,-2.857229E-2,2.5671814E-3,3.2076128E-2,1.623214E-2,-1.02557845E-1,-4.9486104E-1,-3.7105964E-3,-6.709327E-1,9.152934E-3,-1.8493207E-2,2.5616294E-2,-7.47936E-3,1.1160981E-3,-3.5230294E-2,-1.2284859E-2,-3.701319E-2],"categories":[],"categories_nodes":[],"categories_segments":[],"categories_sizes":[],"default_left":[0,0,0,0,0,0,0,0,0,1,0,0,0,0,0,0,0,0,0,0,0,0,0,0,0,0,0,0,0],"id":22,"left_children":[1,3,5,-1,7,9,11,13,15,17,-1,-1,19,-1,-1,-1,21,23,25,-1,27,-1,-1,-1,-1,-1,-1,-1,-1],"loss_changes":[1.3254329E1,6.880129E0,8.34363E0,0E0,4.451046E0,7.0298133E0,3.0574245E0,2.4689605E0,4.911537E0,5.6226635E0,0E0,0E0,2.992422E0,0E0,0E0,0E0,3.0724247E0,4.5284076E0,5.361803E0,0E0,1.7363434E0,0E0,0E0,0E0,0E0,0E0,0E0,0E0,0E0],"parents":[2147483647,0,0,1,1,2,2,4,4,5,5,6,6,7,7,8,8,9,9,12,12,16,16,17,17,18,18,20,20],"right_children":[2,4,6,-1,8,10,12,14,16,18,-1,-1,20,-1,-1,-1,22,24,26,-1,28,-1,-1,-1,-1,-1,-1,-1,-1],"split_conditions":[4.8292914E-1,2.245656E-1,9E0,4.1341927E-2,3.9262182E-1,6.142661E0,4.3658248E-1,6.184605E-1,8.933842E-1,5.2609717E2,3.0528236E-2,-4.393537E-3,6.545072E3,-2.857229E-2,2.5671814E-3,3.2076128E-2,6.564033E-1,1.5502045E-2,1.1118403E-1,-3.7105964E-3,3.776548E-2,9.152934E-3,-1.8493207E-2,2.5616294E-2,-7.47936E-3,1.1160981E-3,-3.5230294E-2,-1.2284859E-2,-3.701319E-2],"split_indices":[10,12,19,0,12,0,22,5,0,27,0,0,28,0,0,0,15,17,2,0,17,0,0,0,0,0,0,0,0],"split_type":[0,0,0,0,0,0,0,0,0,0,0,0,0,0,0,0,0,0,0,0,0,0,0,0,0,0,0,0,0],"sum_hessian":[4.037566E2,9.879496E1,3.0496164E2,1.21822195E1,8.661274E1,2.122085E2,9.275314E1,2.4170958E1,6.244178E1,2.0185551E2,1.0352971E1,1.5021765E1,7.7731384E1,1.3685396E1,1.0485562E1,1.6502697E1,4.5939083E1,1.542012E2,4.7654316E1,1.0322968E1,6.740842E1,3.262652E1,1.3312565E1,1.0102061E1,1.4409914E2,1.3870249E1,3.378407E1,1.0288867E1,5.7119545E1],"tree_param":{"num_deleted":"0","num_feature":"30","num_nodes":"29","size_leaf_vector":"1"}},{"base_weights":[-1.4771202E-1,-3.8685814E-2,-3.9456305E-1,1.9761935E-1,-1.5612732E-1,6.04427E-2,-4.977018E-1,3.014346E-1,-2.2113463E-2,-1.0431538E-1,-3.5784315E-2,3.341293E-2,-2.5416402E-2,-3.604932E-1,-8.002828E-1,1.11019254E-1,7.116185E-1,-2.0949964E-1,1.6695924E-1,-5.1372284E-1,1.0818164E-2,-2.4721295E-2,-4.6052556E-2,-3.311184E-3,3.6801476E-2,1.6715669E-3,6.480708E-2,3.810997E-2,-1.5216352E-2,-9.83497E-3,1.930042E-2,-3.2458536E-2,-9.722298E-4],"categories":[],"categories_nodes":[],"categories_segments":[],"categories_sizes":[],"default_left":[0,0,0,0,1,0,0,0,0,0,0,0,0,1,0,1,0,0,0,0,0,0,0,0,0,0,0,0,0,0,0,0,0],"id":23,"left_children":[1,3,5,7,9,11,13,15,-1,17,-1,-1,-1,19,21,23,25,27,29,31,-1,-1,-1,-1,-1,-1,-1,-1,-1,-1,-1,-1,-1],"loss_changes":[1.0923552E1,7.920352E0,5.9221745E0,6.402808E0,5.3763123E0,8.563251E0,3.8251896E0,6.252301E0,0E0,5.061365E0,0E0,0E0,0E0,6.5176725E0,5.384731E-1,6.477963E0,1.0004618E1,1.193804E1,4.03542E0,3.765706E0,0E0,0E0,0E0,0E0,0E0,0E0,0E0,0E0,0E0,0E0,0E0,0E0,0E0],"parents":[2147483647,0,0,1,1,2,2,3,3,4,4,5,5,6,6,7,7,9,9,13,13,14,14,15,15,16,16,17,17,18,18,19,19],"right_children":[2,4,6,8,10,12,14,16,-1,18,-1,-1,-1,20,22,24,26,28,30,32,-1,-1,-1,-1,-1,-1,-1,-1,-1,-1,-1,-1,-1],"split_conditions":[7.110403E-1,5E0,2.2831128E0,7.927568E-1,4.120245E0,6.6847396E-1,5.268552E-1,2.2317809E-1,-2.2113463E-2,5.411703E-1,-3.5784315E-2,3.341293E-2,-2.5416402E-2,3.200557E-1,7.070067E-1,9.188159E3,3.1121087E-1,3.6904806E-1,5.1126486E-1,7.338742E-1,1.0818164E-2,-2.4721295E-2,-4.6052556E-2,-3.311184E-3,3.6801476E-2,1.6715669E-3,6.480708E-2,3.810997E-2,-1.5216352E-2,-9.83497E-3,1.930042E-2,-3.2458536E-2,-9.722298E-4],"split_indices":[10,19,9,11,20,5,18,17,0,6,0,0,0,25,11,26,18,11,5,15,0,0,0,0,0,0,0,0,0,0,0,0,0],"split_type":[0,0,0,0,0,0,0,0,0,0,0,0,0,0,0,0,0,0,0,0,0,0,0,0,0,0,0,0,0,0,0,0,0],"sum_hessian":[4.0705725E2,2.834349E2,1.2362232E2,9.358914E1,1.8984578E2,2.2741327E1,1.00881E2,8.111438E1,1.247476E1,1.7500633E2,1.4839444E1,1.0993762E1,1.1747564E1,7.114254E1,2.9738457E1,5.6432E1,2.468238E1,1.2653852E2,4.846781E1,5.643467E1,1.4707869E1,1.0094711E1,1.9643745E1,4.453627E1,1.1895729E1,1.199434E1,1.2688042E1,1.0531336E1,1.1600719E2,1.8086565E1,3.0381247E1,4.3891365E1,1.2543307E1],"tree_param":{"num_deleted":"0","num_feature":"30","num_nodes":"33","size_leaf_vector":"1"}},{"base_weights":[-1.312104E-1,-1.7309135E-1,3.8565647E-2,-2.1769493E-3,-2.9694846E-1,7.1642675E-2,-3.3884794E-2,1.5828405E-1,-3.890379E-1,-3.4821784E-1,1.487086E-1,2.7845314E-2,-1.4633897E-2,-4.852392E-1,-1.3870119E-1,1.5411534E-3,-3.5214722E-2,1.7607898E-2,-3.9880797E-3,-1.6806005E-2,-3.7016574E-2,3.494233E-2,-1.8208217E-2],"categories":[],"categories_nodes":[],"categories_segments":[],"categories_sizes":[],"default_left":[0,0,0,1,0,0,0,0,0,0,0,0,0,0,0,0,0,0,0,0,0,0,0],"id":24,"left_children":[1,3,-1,5,7,9,-1,11,13,15,17,-1,-1,19,21,-1,-1,-1,-1,-1,-1,-1,-1],"loss_changes":[1.532637E1,8.152376E0,0E0,8.275734E0,9.466181E0,4.8338037E0,0E0,7.0529494E0,4.364231E0,3.2086465E0,5.9256754E0,0E0,0E0,4.745041E0,1.0322119E1,0E0,0E0,0E0,0E0,0E0,0E0,0E0,0E0],"parents":[2147483647,0,0,1,1,3,3,4,4,5,5,7,7,8,8,9,9,10,10,13,13,14,14],"right_children":[2,4,-1,6,8,10,-1,12,14,16,18,-1,-1,20,22,-1,-1,-1,-1,-1,-1,-1,-1],"split_conditions":[8.968078E-1,6.1362875E-1,3.8565647E-2,1.4E1,1.1020156E-1,3.402811E-1,-3.3884794E-2,4.2286215E0,9E0,2.039097E-1,5.5914813E-1,2.7845314E-2,-1.4633897E-2,7E0,5.0994443E3,1.5411534E-3,-3.5214722E-2,1.7607898E-2,-3.9880797E-3,-1.6806005E-2,-3.7016574E-2,3.494233E-2,-1.8208217E-2],"split_indices":[16,11,0,21,23,25,0,20,8,25,12,0,0,8,28,0,0,0,0,0,0,0,0],"split_type":[0,0,0,0,0,0,0,0,0,0,0,0,0,0,0,0,0,0,0,0,0,0,0],"sum_hessian":[4.025257E2,3.855534E2,1.6972317E1,1.6276865E2,2.2278474E2,1.4740623E2,1.5362408E1,3.7180912E1,1.8560384E2,2.2113625E1,1.2529261E2,1.972875E1,1.7452164E1,1.3311253E2,5.24913E1,1.1017827E1,1.1095798E1,6.622053E1,5.9072086E1,8.5715515E1,4.739701E1,1.0593937E1,4.189736E1],"tree_param":{"num_deleted":"0","num_feature":"30","num_nodes":"23","size_leaf_vector":"1"}},{"base_weights":[-9.636267E-2,-1.3933176E-1,5.810563E-1,3.447749E-2,-2.7236867E-1,1.0655206E-2,4.9549285E-2,-3.1588025E-2,4.0923595E-2,2.5630632E-2,-3.1813097E-1,9.522779E-2,-2.5153264E-1,9.451375E-2,-3.7633425E-1,-1.5365615E-2,1.3386319E-2,-1.964296E-2,8.860648E-3,2.4595095E-2,-1.3741075E-2,-5.463769E-3,-2.4061706E-2],"categories":[],"categories_nodes":[],"categories_segments":[],"categories_sizes":[],"default_left":[0,0,0,0,0,0,0,0,0,0,0,0,1,0,0,0,0,0,0,0,0,0,0],"id":25,"left_children":[1,3,5,7,9,-1,-1,11,-1,-1,13,15,17,19,21,-1,-1,-1,-1,-1,-1,-1,-1],"loss_changes":[1.1784074E1,8.830303E0,3.3075438E0,8.677119E0,7.900688E0,0E0,0E0,4.3208466E0,0E0,0E0,4.982029E0,6.868923E0,3.5266564E0,3.9583106E0,4.927603E0,0E0,0E0,0E0,0E0,0E0,0E0,0E0,0E0],"parents":[2147483647,0,0,1,1,2,2,3,3,4,4,7,7,10,10,11,11,12,12,13,13,14,14],"right_children":[2,4,6,8,10,-1,-1,12,-1,-1,14,16,18,20,22,-1,-1,-1,-1,-1,-1,-1,-1],"split_conditions":[8.6679006E-1,5.5914813E-1,1.5644284E1,7.146456E-1,1.0294036E0,1.0655206E-2,4.9549285E-2,1.8406327E-1,4.0923595E-2,2.5630632E-2,3.093332E-2,5E0,1.1085647E0,7E0,5.504622E-1,-1.5365615E-2,1.3386319E-2,-1.964296E-2,8.860648E-3,2.4595095E-2,-1.3741075E-2,-5.463769E-3,-2.4061706E-2],"split_indices":[16,12,9,6,29,0,0,17,0,0,17,19,29,19,4,0,0,0,0,0,0,0,0],"split_type":[0,0,0,0,0,0,0,0,0,0,0,0,0,0,0,0,0,0,0,0,0,0,0],"sum_hessian":[4.0257495E2,3.7944827E2,2.3126686E1,1.6450977E2,2.149385E2,1.3116833E1,1.0009853E1,1.5249178E2,1.2017996E1,1.1157744E1,2.0378076E2,9.679438E1,5.569739E1,2.4900604E1,1.7888016E2,2.862778E1,6.81666E1,4.2127823E1,1.3569568E1,1.1965339E1,1.29352665E1,5.1292454E1,1.275877E2],"tree_param":{"num_deleted":"0","num_feature":"30","num_nodes":"23","size_leaf_vector":"1"}},{"base_weights":[-1.4526527E-1,2.573407E-2,-1.750664E-1,1.4089495E-1,-2.3206802E-1,4.6488398E-1,-2.0867349E-1,-1.8627618E-1,-7.121133E-1,3.9983608E-2,-1.017385E-3,-2.7237127E-2,1.3330168E-2,2.3563458E-2,-2.2133312E-1,-4.5492318E-2,-1.6293509E-2,-1.23809045E-2,2.1507975E-2],"categories":[],"categories_nodes":[],"categories_segments":[],"categories_sizes":[],"default_left":[0,0,0,0,1,0,0,0,0,0,0,0,0,0,1,0,0,0,0],"id":26,"left_children":[1,-1,3,5,7,9,11,13,15,-1,-1,-1,-1,-1,17,-1,-1,-1,-1],"loss_changes":[7.8410797E0,0E0,6.8789463E0,6.7338157E0,6.8612556E0,5.090105E0,4.7444186E0,6.89637E0,1.6815891E0,0E0,0E0,0E0,0E0,0E0,4.9102936E0,0E0,0E0,0E0,0E0],"parents":[2147483647,0,0,2,2,3,3,4,4,5,5,6,6,7,7,8,8,14,14],"right_children":[2,-1,4,6,8,10,12,14,16,-1,-1,-1,-1,-1,18,-1,-1,-1,-1],"split_conditions":[2.245656E-1,2.573407E-2,1.4762458E-1,5.856677E-1,7.5778223E3,3.6392713E-1,7.417346E-1,8.0859804E-1,4.0896872E-1,3.9983608E-2,-1.017385E-3,-2.7237127E-2,1.3330168E-2,2.3563458E-2,1.2575096E0,-4.5492318E-2,-1.6293509E-2,-1.23809045E-2,2.1507975E-2],"split_indices":[12,0,18,12,28,3,4,9,16,0,0,0,0,0,29,0,0,0,0],"split_type":[0,0,0,0,0,0,0,0,0,0,0,0,0,0,0,0,0,0,0],"sum_hessian":[3.9483447E2,1.6211191E1,3.786233E2,5.7373646E1,3.2124963E2,2.9753511E1,2.7620132E1,2.9473135E2,2.6518265E1,1.734459E1,1.2408923E1,1.6217182E1,1.140295E1,1.4144E1,2.8058737E2,1.6471384E1,1.0046881E1,2.704493E2,1.0138071E1],"tree_param":{"num_deleted":"0","num_feature":"30","num_nodes":"19","size_leaf_vector":"1"}},{"base_weights":[-1.1004374E-1,9.199538E-3,-3.5503E-1,1.07442945E-1,-2.6326597E-1,-2.62384E-1,-7.7850795E-1,4.296528E-2,5.92373E-2,9.583877E-2,-4.8587862E-1,-1.607605E-1,-4.110093E-2,-2.4834655E-2,-4.7950458E-2,1.0170048E-1,-2.882511E-2,2.9002706E-2,-1.17339855E-2,-2.117819E-3,-6.5231705E-1,-2.928927E-2,-4.4181842E-2,1.9006713E-3,3.1821944E-2,-4.221922E-2,-1.4890069E-2,-7.989283E-3,2.5670016E-2],"categories":[],"categories_nodes":[],"categories_segments":[],"categories_sizes":[],"default_left":[0,0,0,0,0,1,0,0,1,0,0,0,0,0,0,0,0,0,0,0,0,0,1,0,0,0,0,0,0],"id":27,"left_children":[1,3,5,7,9,11,13,-1,15,17,19,21,-1,-1,-1,23,-1,-1,-1,-1,25,-1,27,-1,-1,-1,-1,-1,-1],"loss_changes":[1.1821007E1,7.2936354E0,4.8842716E0,7.138569E0,5.849707E0,6.042348E0,5.5088043E-1,0E0,5.1400795E0,4.6928926E0,3.2135582E0,4.6053824E0,0E0,0E0,0E0,6.0075617E0,0E0,0E0,0E0,0E0,1.8389139E0,0E0,4.9206314E0,0E0,0E0,0E0,0E0,0E0,0E0],"parents":[2147483647,0,0,1,1,2,2,3,3,4,4,5,5,6,6,8,8,9,9,10,10,11,11,15,15,20,20,22,22],"right_children":[2,4,6,8,10,12,14,-1,16,18,20,22,-1,-1,-1,24,-1,-1,-1,-1,26,-1,28,-1,-1,-1,-1,-1,-1],"split_conditions":[7.452605E-1,9E0,6.477648E-1,2.245656E-1,4.646382E-1,1.4795329E4,5.2147716E-1,4.296528E-2,7.0636406E3,2.987727E-1,4.9786964E-1,5E0,-4.110093E-2,-2.4834655E-2,-4.7950458E-2,7.2829497E-1,-2.882511E-2,2.9002706E-2,-1.17339855E-2,-2.117819E-3,6.9410706E-1,-2.928927E-2,2.7972942E-2,1.9006713E-3,3.1821944E-2,-4.221922E-2,-1.4890069E-2,-7.989283E-3,2.5670016E-2],"split_indices":[11,19,18,12,15,26,15,0,28,18,11,8,0,0,0,6,0,0,0,0,5,0,24,0,0,0,0,0,0],"split_type":[0,0,0,0,0,0,0,0,0,0,0,0,0,0,0,0,0,0,0,0,0,0,0,0,0,0,0,0,0],"sum_hessian":[4.0235373E2,2.7100198E2,1.3135178E2,1.9989731E2,7.110467E1,1.0929631E2,2.2055466E1,1.0905416E1,1.8899188E2,2.7256487E1,4.3848183E1,9.374009E1,1.5556222E1,1.0292162E1,1.1763303E1,1.7809373E2,1.0898152E1,1.0873781E1,1.6382706E1,1.2470997E1,3.1377184E1,1.912633E1,7.4613754E1,1.6026442E2,1.782931E1,1.9272158E1,1.2105026E1,6.254007E1,1.207369E1],"tree_param":{"num_deleted":"0","num_feature":"30","num_nodes":"29","size_leaf_vector":"1"}},{"base_weights":[-1.10112034E-1,-1.4242516E-1,2.9939963E-2,3.0571812E-1,-1.9816129E-1,-7.3059695E-3,5.366364E-1,2.8152391E-2,-2.3320985E-1,4.1799534E-2,4.544737E-3,-1.0048591E-1,-3.7008345E-1,-1.228237E-3,-2.264684E-2,-3.6463924E-2,-1.4535542E-2],"categories":[],"categories_nodes":[],"categories_segments":[],"categories_sizes":[],"default_left":[0,0,0,0,0,0,0,0,0,0,0,1,0,0,0,0,0],"id":28,"left_children":[1,3,-1,5,7,-1,9,-1,11,-1,-1,13,15,-1,-1,-1,-1],"loss_changes":[9.105083E0,9.527334E0,0E0,4.5169554E0,9.123171E0,0E0,3.602891E0,0E0,5.8055725E0,0E0,0E0,4.3922977E0,4.215376E0,0E0,0E0,0E0,0E0],"parents":[2147483647,0,0,1,1,3,3,4,4,6,6,8,8,11,11,12,12],"right_children":[2,4,-1,6,8,-1,10,-1,12,-1,-1,14,16,-1,-1,-1,-1],"split_conditions":[8.968078E-1,1.7418789E0,2.9939963E-2,3.4484124E-1,2.245656E-1,-7.3059695E-3,4.510599E-1,2.8152391E-2,6.146306E-1,4.1799534E-2,4.544737E-3,1.1364688E0,5E0,-1.228237E-3,-2.264684E-2,-3.6463924E-2,-1.4535542E-2],"split_indices":[16,9,0,16,12,0,18,0,10,0,0,29,8,0,0,0,0],"split_type":[0,0,0,0,0,0,0,0,0,0,0,0,0,0,0,0,0],"sum_hessian":[3.9474722E2,3.7843768E2,1.6309542E1,4.1165943E1,3.3727173E2,1.3900678E1,2.7265266E1,1.4056865E1,3.2321487E2,1.5653039E1,1.16122265E1,1.6534625E2,1.578686E2,1.3715518E2,2.8191069E1,2.686139E1,1.3100722E2],"tree_param":{"num_deleted":"0","num_feature":"30","num_nodes":"17","size_leaf_vector":"1"}},{"base_weights":[-8.573554E-2,1.0789147E-2,-3.3356693E-1,4.7662362E-2,-3.7699066E-2,-1.445742E-1,-5.7753104E-1,1.7199656E-1,-1.149821E-1,-2.9960933E-1,1.6780859E-2,-8.549909E-3,-7.149233E-1,2.2237274E-1,-2.1701751E-2,2.0414207E-2,-4.556074E-1,1.3228759E-2,-4.9545813E-1,-2.19651E-2,-5.2194167E-2,8.557778E-3,3.899775E-2,-8.241932E-3,1.5391442E-2,-3.307477E-2,5.1387993E-4,-2.4269863E-3,-3.3693247E-2],"categories":[],"categories_nodes":[],"categories_segments":[],"categories_sizes":[],"default_left":[0,1,0,0,0,1,0,0,0,0,0,0,0,0,0,0,0,0,0,0,0,0,0,0,0,0,0,0,0],"id":29,"left_children":[1,3,5,7,-1,9,11,13,15,17,-1,-1,19,21,-1,23,25,-1,27,-1,-1,-1,-1,-1,-1,-1,-1,-1,-1],"loss_changes":[9.427603E0,7.9522862E0,4.9331503E0,5.5111403E0,0E0,4.8433895E0,2.4485674E0,4.7918563E0,5.484698E0,5.555332E0,0E0,0E0,2.5744896E0,3.867927E0,0E0,4.5921702E0,3.3095198E0,0E0,2.8264618E0,0E0,0E0,0E0,0E0,0E0,0E0,0E0,0E0,0E0,0E0],"parents":[2147483647,0,0,1,1,2,2,3,3,5,5,6,6,7,7,8,8,9,9,12,12,13,13,15,15,16,16,18,18],"right_children":[2,4,6,8,-1,10,12,14,16,18,-1,-1,20,22,-1,24,26,-1,28,-1,-1,-1,-1,-1,-1,-1,-1,-1,-1],"split_conditions":[9E0,8.1172354E3,6.537909E-1,6.258712E-1,-3.7699066E-2,2.1049911E-1,5.619266E-1,7.908489E-1,5.1283294E-1,2.0927912E-1,1.6780859E-2,-8.549909E-3,3.695729E-1,6.0495037E-1,-2.1701751E-2,4.6362418E-1,7.145808E-1,1.3228759E-2,5.9327495E-1,-2.19651E-2,-5.2194167E-2,8.557778E-3,3.899775E-2,-8.241932E-3,1.5391442E-2,-3.307477E-2,5.1387993E-4,-2.4269863E-3,-3.3693247E-2],"split_indices":[19,28,12,10,0,25,11,12,18,18,0,0,16,10,0,3,18,0,4,0,0,0,0,0,0,0,0,0,0],"split_type":[0,0,0,0,0,0,0,0,0,0,0,0,0,0,0,0,0,0,0,0,0,0,0,0,0,0,0,0,0],"sum_hessian":[3.916004E2,2.8223087E2,1.0936952E2,2.7026837E2,1.1962487E1,6.2756313E1,4.661321E1,1.5348982E2,1.16778564E2,4.788154E1,1.4874775E1,1.2525046E1,3.4088165E1,1.4244704E2,1.10427885E1,8.402548E1,3.2753082E1,1.2116331E1,3.576521E1,1.9983917E1,1.4104247E1,1.318245E2,1.0622542E1,5.1141087E1,3.2884396E1,2.2572447E1,1.0180635E1,1.0726744E1,2.5038465E1],"tree_param":{"num_deleted":"0","num_feature":"30","num_nodes":"29","size_leaf_vector":"1"}},{"base_weights":[-1.0476997E-1,5.5819333E-2,-2.2859526E-1,3.353128E-2,-2.6329115E-3,3.0884302E-1,-2.8340188E-1,-1.0215956E-1,2.6345783E-1,-6.8110637E-3,3.6585316E-2,1.976949E-1,-3.7053093E-1,-2.4546187E-1,2.4895619E-1,4.988668E-1,-9.389792E-3,3.178524E-2,-1.985093E-2,2.226137E-2,-4.3235064E-1,1.7114867E-2,-1.8790156E-2,-6.80148E-3,4.3458503E-2,4.3878958E-2,3.2016856E-3,-2.5298193E-2,6.6300905E-3],"categories":[],"categories_nodes":[],"categories_segments":[],"categories_sizes":[],"default_left":[0,0,0,0,0,0,0,1,0,0,0,0,0,0,0,0,0,0,0,0,1,0,0,0,0,0,0,0,0],"id":30,"left_children":[1,3,5,-1,7,9,11,13,15,-1,-1,17,19,21,23,25,-1,-1,-1,-1,27,-1,-1,-1,-1,-1,-1,-1,-1],"loss_changes":[7.9391737E0,6.307816E0,6.716112E0,0E0,4.2319674E0,4.138355E0,8.682922E0,5.9475327E0,4.7345743E0,0E0,0E0,8.58779E0,8.969851E0,6.5512424E0,8.358697E0,4.6148577E0,0E0,0E0,0E0,0E0,6.8597584E0,0E0,0E0,0E0,0E0,0E0,0E0,0E0,0E0],"parents":[2147483647,0,0,1,1,2,2,4,4,5,5,6,6,7,7,8,8,11,11,12,12,13,13,14,14,15,15,20,20],"right_children":[2,4,6,-1,8,10,12,14,16,-1,-1,18,20,22,24,26,-1,-1,-1,-1,28,-1,-1,-1,-1,-1,-1,-1,-1],"split_conditions":[5.473267E-1,2E0,1.161075E-1,3.353128E-2,4.8731354E-1,7.1561456E-1,3.3679828E-1,2.039097E-1,8E0,-6.8110637E-3,3.6585316E-2,7.2336334E-1,2.616553E2,5.1528316E-2,2.2533728E-1,1.0701748E1,-9.389792E-3,3.178524E-2,-1.985093E-2,2.226137E-2,8.179286E-2,1.7114867E-2,-1.8790156E-2,-6.80148E-3,4.3458503E-2,4.3878958E-2,3.2016856E-3,-2.5298193E-2,6.6300905E-3],"split_indices":[12,19,6,0,12,12,4,25,19,0,0,12,27,2,2,9,0,0,0,0,23,0,0,0,0,0,0,0,0],"split_type":[0,0,0,0,0,0,0,0,0,0,0,0,0,0,0,0,0,0,0,0,0,0,0,0,0,0,0,0,0],"sum_hessian":[3.967435E2,1.7261732E2,2.2412619E2,1.4225883E1,1.5839143E2,2.0142956E1,2.0398323E2,1.1599674E2,4.2394695E1,1.0028899E1,1.0114057E1,3.0907263E1,1.7307597E2,8.279216E1,3.3204586E1,2.7936789E1,1.4457907E1,1.7855677E1,1.3051585E1,1.1641241E1,1.6143474E2,1.4593053E1,6.8199104E1,2.0869616E1,1.2334972E1,1.4264838E1,1.367195E1,1.4307367E2,1.8361061E1],"tree_param":{"num_deleted":"0","num_feature":"30","num_nodes":"29","size_leaf_vector":"1"}},{"base_weights":[-8.260669E-2,3.5716124E-2,-1.1056609E-1,3.4540784E-1,-1.5771928E-1,1.7817218E-2,5.258877E-2,-3.438063E-1,-0E0,1.7542796E-2,-2.2502555E-2,4.172745E-2,-4.772711E-1,2.939764E-2,-5.2899074E-2,1.6113782E-2,-2.463541E-2,1.2931209E-4,-2.7680397E-2,1.0673444E-2,-8.263629E-3],"categories":[],"categories_nodes":[],"categories_segments":[],"categories_sizes":[],"default_left":[0,0,0,0,0,0,0,0,0,0,0,0,0,0,0,0,0,0,0,0,0],"id":31,"left_children":[1,-1,3,5,7,9,-1,11,13,-1,-1,15,17,-1,19,-1,-1,-1,-1,-1,-1],"loss_changes":[8.830347E0,0E0,8.271599E0,8.2080555E0,1.0244032E1,4.155314E0,0E0,8.291595E0,5.9590015E0,0E0,0E0,6.4163327E0,4.4177876E0,0E0,5.24783E0,0E0,0E0,0E0,0E0,0E0,0E0],"parents":[2147483647,0,0,2,2,3,3,4,4,5,5,7,7,8,8,11,11,12,12,14,14],"right_children":[2,-1,4,6,8,10,-1,12,14,-1,-1,16,18,-1,20,-1,-1,-1,-1,-1,-1],"split_conditions":[2.0392723E3,3.5716124E-2,1.24198526E-1,7.218491E-1,3.7548614E-1,5.109915E-1,5.258877E-2,4.4990847E-1,4.0028614E-1,1.7542796E-2,-2.2502555E-2,4.7519338E-1,4.2286215E0,2.939764E-2,4.7193035E-1,1.6113782E-2,-2.463541E-2,1.2931209E-4,-2.7680397E-2,1.0673444E-2,-8.263629E-3],"split_indices":[28,0,6,12,6,16,0,12,6,0,0,18,20,0,10,0,0,0,0,0,0],"split_type":[0,0,0,0,0,0,0,0,0,0,0,0,0,0,0,0,0,0,0,0,0],"sum_hessian":[3.944707E2,1.2417193E1,3.8205353E2,3.501459E1,3.4703894E2,2.4717978E1,1.0296613E1,1.5890852E2,1.881304E2,1.4710535E1,1.00074415E1,4.0848732E1,1.18059784E2,1.4827102E1,1.733033E2,2.7170084E1,1.3678648E1,1.615634E1,1.0190345E2,5.0888554E1,1.2241475E2],"tree_param":{"num_deleted":"0","num_feature":"30","num_nodes":"21","size_leaf_vector":"1"}},{"base_weights":[-5.9497345E-2,-2.9870283E-2,-3.764615E-2,3.3267703E-2,-5.6592166E-2,2.8597462E-1,-1.0848865E-1,8.601369E-3,4.953101E-2,4.794723E-2,-2.7080965E-1,2.5920702E-2,-1.4173097E-2,6.394554E-3,-2.3887308E-2,-1.7108826E-2,1.699899E-2],"categories":[],"categories_nodes":[],"categories_segments":[],"categories_sizes":[],"default_left":[1,0,0,0,0,0,0,0,0,0,1,0,0,0,0,0,0],"id":32,"left_children":[1,3,-1,-1,5,7,9,11,-1,13,15,-1,-1,-1,-1,-1,-1],"loss_changes":[7.914306E0,6.949594E0,0E0,0E0,6.457808E0,9.217028E0,8.054004E0,5.433507E0,0E0,6.806777E0,6.8923225E0,0E0,0E0,0E0,0E0,0E0,0E0],"parents":[2147483647,0,0,1,1,4,4,5,5,6,6,7,7,9,9,10,10],"right_children":[2,4,-1,-1,6,8,10,12,-1,14,16,-1,-1,-1,-1,-1,-1],"split_conditions":[2.3020055E4,2.9840996E1,-3.764615E-2,3.3267703E-2,1.5106715E-1,3.206576E-1,5.856677E-1,6.167234E-1,4.953101E-2,7.260151E-1,4.3830795E0,2.5920702E-2,-1.4173097E-2,6.394554E-3,-2.3887308E-2,-1.7108826E-2,1.699899E-2],"split_indices":[26,27,0,0,6,2,12,4,0,10,20,0,0,0,0,0,0],"split_type":[0,0,0,0,0,0,0,0,0,0,0,0,0,0,0,0,0],"sum_hessian":[3.891388E2,3.743325E2,1.48063135E1,1.2832311E1,3.6150018E2,4.6712868E1,3.1478732E2,3.434686E1,1.2366009E1,1.6034467E2,1.5444266E2,1.2352416E1,2.1994442E1,1.4000119E2,2.0343473E1,1.3882529E2,1.5617359E1],"tree_param":{"num_deleted":"0","num_feature":"30","num_nodes":"17","size_leaf_vector":"1"}},{"base_weights":[-8.656537E-2,7.6156564E-2,-2.1052134E-1,3.0913403E-2,2.2629019E-2,-2.7532175E-1,1.9518849E-1,-3.1920232E-2,3.5816785E-2,2.4829164E-2,-3.236971E-1,-2.4600094E-3,2.8536567E-2,-2.5574733E-2,1.8153336E-2,-3.9033228E-1,9.759412E-2,-2.8255999E-3,2.0601263E-2,2.677067E-3,-2.4372773E-2,-2.2332504E-2,2.5086507E-2],"categories":[],"categories_nodes":[],"categories_segments":[],"categories_sizes":[],"default_left":[0,0,0,0,1,0,0,0,0,0,0,0,0,0,0,0,0,0,0,0,0,0,0],"id":33,"left_children":[1,3,5,-1,7,9,11,13,-1,-1,15,-1,-1,-1,17,19,21,-1,-1,-1,-1,-1,-1],"loss_changes":[7.8930674E0,4.8246617E0,5.89563E0,0E0,5.9558706E0,7.3118143E0,2.9193044E0,3.5287344E0,0E0,0E0,5.159088E0,0E0,0E0,0E0,3.9295688E0,6.8382683E0,5.8086343E0,0E0,0E0,0E0,0E0,0E0,0E0],"parents":[2147483647,0,0,1,1,2,2,4,4,5,5,6,6,7,7,10,10,14,14,15,15,16,16],"right_children":[2,4,6,-1,8,10,12,14,-1,-1,16,-1,-1,-1,18,20,22,-1,-1,-1,-1,-1,-1],"split_conditions":[5.4945785E-1,1.5502045E-2,2E0,3.0913403E-2,3.804245E-2,1.7674437E2,9E0,3.365032E-2,3.5816785E-2,2.4829164E-2,3.6150768E0,-2.4600094E-3,2.8536567E-2,-2.5574733E-2,3.6438578E-1,7.479827E-2,3.6523145E-1,-2.8255999E-3,2.0601263E-2,2.677067E-3,-2.4372773E-2,-2.2332504E-2,2.5086507E-2],"split_indices":[12,17,1,0,24,27,8,17,0,0,0,0,0,0,2,24,16,0,0,0,0,0,0],"split_type":[0,0,0,0,0,0,0,0,0,0,0,0,0,0,0,0,0,0,0,0,0,0,0],"sum_hessian":[3.8885916E2,1.6795581E2,2.2090337E2,1.3977459E1,1.5397835E2,1.9096939E2,2.9933971E1,1.4350383E2,1.0474513E1,1.0593938E1,1.8037546E2,1.8498545E1,1.1435427E1,1.2884648E1,1.3061919E2,1.5601031E2,2.4365137E1,1.10310524E2,2.030866E1,2.790368E1,1.2810664E2,1.0232515E1,1.4132622E1],"tree_param":{"num_deleted":"0","num_feature":"30","num_nodes":"23","size_leaf_vector":"1"}},{"base_weights":[-1.1136229E-1,4.750618E-1,-1.533415E-1,5.366496E-3,4.478041E-2,1.8554845E-1,-2.1028168E-1,-2.3559473E-1,5.46012E-1,3.2271227E-1,-2.5705007E-1,2.2309464E-3,-2.712789E-2,5.1996298E-2,3.8447947E-4,-7.209E-3,4.7449734E-2,-2.0094761E-1,-5.5873615E-1,-1.6595712E-2,-3.196874E-4,-1.1536371E-3,-3.6268286E-2],"categories":[],"categories_nodes":[],"categories_segments":[],"categories_sizes":[],"default_left":[0,0,0,0,0,0,0,0,0,0,0,0,0,0,0,0,0,0,0,0,0,0,0],"id":34,"left_children":[1,3,5,-1,-1,7,9,11,13,15,17,-1,-1,-1,-1,-1,-1,19,21,-1,-1,-1,-1],"loss_changes":[9.5294E0,3.7987227E0,6.999999E0,0E0,0E0,8.076778E0,7.7903357E0,2.1919081E0,7.4729424E0,7.5959888E0,4.639267E0,0E0,0E0,0E0,0E0,0E0,0E0,6.1389103E0,3.8252964E0,0E0,0E0,0E0,0E0],"parents":[2147483647,0,0,1,1,2,2,5,5,6,6,7,7,8,8,9,9,10,10,17,17,18,18],"right_children":[2,4,6,-1,-1,8,10,12,14,16,18,-1,-1,-1,-1,-1,-1,20,22,-1,-1,-1,-1],"split_conditions":[2E0,6.370139E-1,1.5963686E-1,5.366496E-3,4.478041E-2,1.8054618E-1,2.6593992E-2,6.868492E-1,7E0,5.34323E-1,8.639922E-1,2.2309464E-3,-2.712789E-2,5.1996298E-2,3.8447947E-4,-7.209E-3,4.7449734E-2,4.8839596E-1,4.6144858E-1,-1.6595712E-2,-3.196874E-4,-1.1536371E-3,-3.6268286E-2],"split_indices":[19,5,6,0,0,2,2,11,19,6,11,0,0,0,0,0,0,16,12,0,0,0,0],"split_type":[0,0,0,0,0,0,0,0,0,0,0,0,0,0,0,0,0,0,0,0,0,0,0],"sum_hessian":[3.8444446E2,2.4833721E1,3.5961072E2,1.4045304E1,1.0788417E1,5.115247E1,3.0845825E2,2.3622454E1,2.7530014E1,2.4234333E1,2.8422394E2,1.262578E1,1.0996674E1,1.3774385E1,1.375563E1,1.4233442E1,1.000089E1,2.4134097E2,4.2882954E1,1.435131E2,9.7827866E1,1.0587134E1,3.229582E1],"tree_param":{"num_deleted":"0","num_feature":"30","num_nodes":"23","size_leaf_vector":"1"}},{"base_weights":[-5.2425064E-2,-1.0465655E-1,3.314477E-1,-2.2029119E-2,-2.9560348E-1,-6.5091173E-3,6.0919785E-1,6.929353E-2,-3.098843E-1,-3.839015E-1,1.9084953E-2,5.469642E-2,1.140523E-2,-1.3718235E-1,1.863178E-1,-4.4574204E-1,1.0592819E-2,3.135033E-3,-4.593122E-1,-1.5925331E-2,1.6573701E-2,-7.301946E-4,2.1553973E-2,-2.9767666E-2,-4.0770723E-3,-1.571002E-2,-4.4826142E-2],"categories":[],"categories_nodes":[],"categories_segments":[],"categories_sizes":[],"default_left":[0,0,0,0,1,0,0,0,0,0,0,0,0,0,0,0,0,0,0,0,0,0,0,0,0,0,0],"id":35,"left_children":[1,3,5,7,9,-1,11,13,15,17,-1,-1,-1,19,21,23,-1,-1,25,-1,-1,-1,-1,-1,-1,-1,-1],"loss_changes":[7.860163E0,5.413364E0,6.139461E0,6.42341E0,6.3613453E0,0E0,5.0839005E0,4.494258E0,4.291356E0,3.1857367E0,0E0,0E0,0E0,5.805928E0,5.882596E0,2.4550514E0,0E0,0E0,4.6410694E0,0E0,0E0,0E0,0E0,0E0,0E0,0E0,0E0],"parents":[2147483647,0,0,1,1,2,2,3,3,4,4,6,6,7,7,8,8,9,9,13,13,14,14,15,15,18,18],"right_children":[2,4,6,8,10,-1,12,14,16,18,-1,-1,-1,20,22,24,-1,-1,26,-1,-1,-1,-1,-1,-1,-1,-1],"split_conditions":[7.753933E-1,9E0,5.227884E-1,7.901201E-1,3.764213E-1,-6.5091173E-3,3.3128324E-1,5.1806426E-1,8.5526484E-1,1.4483988E-1,1.9084953E-2,5.469642E-2,1.140523E-2,2.5422937E-1,6.4751756E-1,4.1249946E-1,1.0592819E-2,3.135033E-3,7.3440313E-1,-1.5925331E-2,1.6573701E-2,-7.301946E-4,2.1553973E-2,-2.9767666E-2,-4.0770723E-3,-1.571002E-2,-4.4826142E-2],"split_indices":[16,19,11,11,25,0,3,4,10,24,0,0,0,2,5,6,0,0,7,0,0,0,0,0,0,0,0],"split_type":[0,0,0,0,0,0,0,0,0,0,0,0,0,0,0,0,0,0,0,0,0,0,0,0,0,0,0],"sum_hessian":[3.904244E2,3.4453348E2,4.589093E1,2.4161835E2,1.0291512E2,1.7303385E1,2.8587543E1,1.8373874E2,5.7879616E1,9.155959E1,1.1355534E1,1.1644039E1,1.6943504E1,6.609498E1,1.1764377E2,4.618951E1,1.1690105E1,1.3059605E1,7.8499985E1,4.80414E1,1.8053574E1,6.489998E1,5.274379E1,3.209559E1,1.4093921E1,6.040028E1,1.8099705E1],"tree_param":{"num_deleted":"0","num_feature":"30","num_nodes":"27","size_leaf_vector":"1"}},{"base_weights":[-9.954658E-2,1.3660453E-1,-2.0889907E-1,-2.0623498E-2,2.364544E-1,-2.408611E-1,2.5307635E-2,3.5264987E-1,-2.1458454E-2,1.7818275E-1,-2.9264525E-1,6.2330866E-1,1.0145843E-1,2.9739711E-2,-5.4529677E-3,2.1361798E-1,-3.494073E-1,5.6691514E-3,5.0827533E-2,-3.2464437E-2,2.1725478E-2,3.599153E-2,-1.3484917E-2,-8.956961E-3,-2.6492152E-2],"categories":[],"categories_nodes":[],"categories_segments":[],"categories_sizes":[],"default_left":[0,0,0,0,0,0,0,0,0,0,0,0,0,0,0,0,0,0,0,0,0,0,0,0,0],"id":36,"left_children":[1,3,5,-1,7,9,-1,11,-1,13,15,17,19,-1,-1,21,23,-1,-1,-1,-1,-1,-1,-1,-1],"loss_changes":[9.957794E0,6.764304E0,6.1129694E0,0E0,8.183564E0,5.550293E0,0E0,5.92731E0,0E0,3.4902952E0,6.5719547E0,8.302052E0,1.2172141E1,0E0,0E0,5.9127917E0,6.0842743E0,0E0,0E0,0E0,0E0,0E0,0E0,0E0,0E0],"parents":[2147483647,0,0,1,1,2,2,4,4,5,5,7,7,9,9,10,10,11,11,12,12,15,15,16,16],"right_children":[2,4,6,-1,8,10,-1,12,-1,14,16,18,20,-1,-1,22,24,-1,-1,-1,-1,-1,-1,-1,-1],"split_conditions":[5E0,2E1,9.2018354E-1,-2.0623498E-2,9.1982186E-1,1.6368197E0,2.5307635E-2,1.1051953E1,-2.1458454E-2,3.1932622E-1,4.095242E0,4.5554686E0,1.7126917E1,2.9739711E-2,-5.4529677E-3,9.644952E-1,6.1099356E-1,5.6691514E-3,5.0827533E-2,-3.2464437E-2,2.1725478E-2,3.599153E-2,-1.3484917E-2,-8.956961E-3,-2.6492152E-2],"split_indices":[19,21,5,0,4,9,0,9,0,18,20,9,9,0,0,0,10,0,0,0,0,0,0,0,0],"split_type":[0,0,0,0,0,0,0,0,0,0,0,0,0,0,0,0,0,0,0,0,0,0,0,0,0],"sum_hessian":[3.8322162E2,1.20922E2,2.6229962E2,1.7970392E1,1.029516E2,2.5184541E2,1.0454213E1,8.8178955E1,1.4772648E1,2.7218433E1,2.2462698E2,4.1540043E1,4.663891E1,1.0812942E1,1.640549E1,2.2189821E1,2.0243716E2,1.875833E1,2.2781715E1,1.3948078E1,3.269083E1,1.0700231E1,1.1489591E1,1.0546357E2,9.697359E1],"tree_param":{"num_deleted":"0","num_feature":"30","num_nodes":"25","size_leaf_vector":"1"}},{"base_weights":[-6.1790787E-2,2.7780298E-2,-3.5545185E-1,1.1783565E-1,-2.2221255E-1,-4.7633976E-1,1.9364944E-2,1.7671812E-1,-2.9423335E-1,3.5546103E-3,-5.492606E-1,-7.324079E-2,-6.306972E-1,6.091594E-2,4.1976818E-1,-2.5869533E-2,-1.7085088E-3,2.3578359E-2,-1.9882639E-1,-1.1712E-2,-6.870616E-1,1.7062146E-2,-2.5649998E-2,-6.656027E-3,-8.001472E-1,-8.244713E-4,3.9253943E-2,2.688284E-2,-7.78758E-3,2.3779355E-3,-3.220622E-2,-2.2977965E-2,-4.1925844E-2,-2.7324328E-2,-5.0435014E-2],"categories":[],"categories_nodes":[],"categories_segments":[],"categories_sizes":[],"default_left":[0,0,1,0,0,0,0,0,0,0,0,0,0,0,0,0,0,0,0,0,0,0,0,0,0,0,0,0,0,0,0,0,0,0,0],"id":37,"left_children":[1,3,5,7,9,11,-1,13,15,17,19,21,23,25,27,-1,-1,-1,29,-1,31,-1,-1,-1,33,-1,-1,-1,-1,-1,-1,-1,-1,-1,-1],"loss_changes":[1.0104607E1,6.629937E0,8.251203E0,5.3038554E0,5.8052754E0,4.7207336E0,0E0,5.292292E0,1.510701E0,4.560756E0,1.1353645E0,4.354931E0,4.5138416E0,7.4090195E0,4.2656364E0,0E0,0E0,0E0,3.741322E0,0E0,2.2609234E-1,0E0,0E0,0E0,1.4809551E0,0E0,0E0,0E0,0E0,0E0,0E0,0E0,0E0,0E0,0E0],"parents":[2147483647,0,0,1,1,2,2,3,3,4,4,5,5,7,7,8,8,9,9,10,10,11,11,12,12,13,13,14,14,18,18,20,20,24,24],"right_children":[2,4,6,8,10,12,-1,14,16,18,20,22,24,26,28,-1,-1,-1,30,-1,32,-1,-1,-1,34,-1,-1,-1,-1,-1,-1,-1,-1,-1,-1],"split_conditions":[7.2442687E-1,9E0,4.2620164E-1,6.2840545E-1,6.537909E-1,3.872721E-1,1.9364944E-2,6.693862E-1,4.3044955E-1,5.430679E-1,1.2059558E-1,7.2044E-1,2.797047E-1,7.4145174E-1,5.836052E-1,-2.5869533E-2,-1.7085088E-3,2.3578359E-2,1.2E1,-1.1712E-2,3.301296E-1,1.7062146E-2,-2.5649998E-2,-6.656027E-3,6.852385E-1,-8.244713E-4,3.9253943E-2,2.688284E-2,-7.78758E-3,2.3779355E-3,-3.220622E-2,-2.2977965E-2,-4.1925844E-2,-2.7324328E-2,-5.0435014E-2],"split_indices":[7,19,25,18,12,15,0,12,16,25,17,11,18,6,3,0,0,0,19,0,16,0,0,0,0,0,0,0,0,0,0,0,0,0,0],"split_type":[0,0,0,0,0,0,0,0,0,0,0,0,0,0,0,0,0,0,0,0,0,0,0,0,0,0,0,0,0,0,0,0,0,0,0],"sum_hessian":[3.8153278E2,2.9279172E2,8.874106E1,2.1593408E2,7.685764E1,7.674378E1,1.1997276E1,1.896482E2,2.6285894E1,4.5873623E1,3.0984022E1,2.1837706E1,5.4906075E1,1.2957414E2,6.0074047E1,1.3407267E1,1.2878628E1,1.3596138E1,3.2277485E1,1.0471386E1,2.0512636E1,1.1240185E1,1.059752E1,1.455175E1,4.0354324E1,1.1781961E2,1.1754534E1,5.0059483E1,1.0014562E1,2.1210346E1,1.1067139E1,1.0074375E1,1.0438261E1,2.005795E1,2.0296373E1],"tree_param":{"num_deleted":"0","num_feature":"30","num_nodes":"35","size_leaf_vector":"1"}},{"base_weights":[-7.709532E-2,-1.1210711E-1,2.8703555E-2,2.841583E-1,-1.5415278E-1,-9.301708E-3,5.836771E-1,3.0656068E-2,-1.837001E-1,4.9859207E-2,6.291687E-3,-1.250777E-1,-5.489347E-1,2.5817895E-2,-7.6388055E-3,-1.1633105E-3,-3.84287E-2],"categories":[],"categories_nodes":[],"categories_segments":[],"categories_sizes":[],"default_left":[0,0,0,0,0,0,0,0,0,0,0,0,0,0,0,0,0],"id":38,"left_children":[1,3,-1,5,7,-1,9,-1,11,-1,-1,13,15,-1,-1,-1,-1],"loss_changes":[8.668285E0,6.0461645E0,0E0,5.0431986E0,7.489475E0,0E0,3.8522153E0,0E0,6.630677E0,0E0,0E0,4.908158E0,4.8883514E0,0E0,0E0,0E0,0E0],"parents":[2147483647,0,0,1,1,3,3,4,4,6,6,8,8,11,11,12,12],"right_children":[2,4,-1,6,8,-1,10,-1,12,-1,-1,14,16,-1,-1,-1,-1],"split_conditions":[8.968078E-1,1.24198526E-1,2.8703555E-2,3.4533507E-1,2.9840996E1,-9.301708E-3,8.423899E0,3.0656068E-2,7.616697E-1,4.9859207E-2,6.291687E-3,4.191836E-2,2.818238E-1,2.5817895E-2,-7.6388055E-3,-1.1633105E-3,-3.84287E-2],"split_indices":[16,6,0,3,27,0,9,0,7,0,0,0,18,0,0,0,0],"split_type":[0,0,0,0,0,0,0,0,0,0,0,0,0,0,0,0,0],"sum_hessian":[3.7841632E2,3.600392E2,1.8377111E1,3.375679E1,3.262824E2,1.3153347E1,2.0603445E1,1.1241162E1,3.1504126E2,1.0092162E1,1.0511282E1,2.7286154E2,4.2179703E1,1.0415213E1,2.6244635E2,1.2890279E1,2.9289425E1],"tree_param":{"num_deleted":"0","num_feature":"30","num_nodes":"17","size_leaf_vector":"1"}},{"base_weights":[-5.678285E-2,9.659476E-2,-1.8008873E-1,-2.5831426E-2,3.4894055E-1,-2.2324745E-1,2.3396296E-2,6.1796933E-2,-2.685797E-2,4.9313983E-1,-1.1280162E-2,6.720386E-2,-3.07985E-1,3.6163986E-1,-5.6352362E-2,2.280905E-1,4.4837624E-2,2.8146216E-1,-2.9556176E-2,-3.839187E-1,1.7998792E-2,3.5755165E-2,4.250048E-3,4.202911E-3,-2.6150167E-2,3.437866E-2,-3.2164336E-3,-1.0616823E-2,2.6800854E-2,-2.1778405E-2,1.0953645E-2],"categories":[],"categories_nodes":[],"categories_segments":[],"categories_sizes":[],"default_left":[0,0,0,0,0,0,0,0,0,0,0,0,1,0,0,0,0,0,0,0,0,0,0,0,0,0,0,0,0,0,0],"id":39,"left_children":[1,3,5,7,9,11,-1,13,-1,15,-1,17,19,21,23,25,-1,27,-1,29,-1,-1,-1,-1,-1,-1,-1,-1,-1,-1,-1],"loss_changes":[7.025465E0,5.1459904E0,5.8379526E0,5.0955505E0,4.637706E0,4.815748E0,0E0,3.4616218E0,0E0,4.37593E0,0E0,6.3889785E0,7.774637E0,2.5567572E0,4.654073E0,3.8646955E0,0E0,4.4502335E0,0E0,4.3453884E0,0E0,0E0,0E0,0E0,0E0,0E0,0E0,0E0,0E0,0E0,0E0],"parents":[2147483647,0,0,1,1,2,2,3,3,4,4,5,5,7,7,9,9,11,11,12,12,13,13,14,14,15,15,17,17,19,19],"right_children":[2,4,6,8,10,12,-1,14,-1,16,-1,18,20,22,24,26,-1,28,-1,30,-1,-1,-1,-1,-1,-1,-1,-1,-1,-1,-1],"split_conditions":[5.5064404E-1,2.4998407E-1,9.5496106E-1,8.2516915E-1,8.1331855E-1,4.5040724E-1,2.3396296E-2,5.1528316E-2,-2.685797E-2,6.348009E-1,-1.1280162E-2,7.087039E-1,3.0829465E-1,5.0864345E-1,2E0,3.2748115E-1,4.4837624E-2,6.334095E-1,-2.9556176E-2,9.138646E-1,1.7998792E-2,3.5755165E-2,4.250048E-3,4.202911E-3,-2.6150167E-2,3.437866E-2,-3.2164336E-3,-1.0616823E-2,2.6800854E-2,-2.1778405E-2,1.0953645E-2],"split_indices":[12,2,12,11,5,4,0,2,0,5,0,10,22,5,1,16,0,12,0,10,0,0,0,0,0,0,0,0,0,0,0],"split_type":[0,0,0,0,0,0,0,0,0,0,0,0,0,0,0,0,0,0,0,0,0,0,0,0,0,0,0,0,0,0,0],"sum_hessian":[3.691135E2,1.6423305E2,2.0488043E2,1.1092087E2,5.331218E1,1.9284639E2,1.2034042E1,9.527652E1,1.564435E1,4.286871E1,1.0443472E1,4.3335148E1,1.4951125E2,2.6587488E1,6.868903E1,2.6970362E1,1.5898346E1,3.3240955E1,1.0094195E1,1.34766E2,1.4745232E1,1.0818353E1,1.5769136E1,5.326708E1,1.5421952E1,1.0096394E1,1.6873968E1,1.1229808E1,2.2011147E1,1.2454184E2,1.0224169E1],"tree_param":{"num_deleted":"0","num_feature":"30","num_nodes":"31","size_leaf_vector":"1"}},{"base_weights":[-8.442446E-2,-1.1331836E-1,2.3350038E-2,-8.8188194E-2,-3.520086E-2,-5.010224E-1,-5.1082533E-2,-3.59301E-2,-9.0193935E-3,1.4312112E-1,-1.4259656E-1,1.2024561E-2,-1.3714305E-2,-2.5159393E-2,-3.8689238E-3],"categories":[],"categories_nodes":[],"categories_segments":[],"categories_sizes":[],"default_left":[0,1,0,0,0,0,0,0,0,1,0,0,0,0,0],"id":40,"left_children":[1,3,-1,5,-1,7,9,-1,-1,11,13,-1,-1,-1,-1],"loss_changes":[6.007787E0,5.176328E0,0E0,5.2027454E0,0E0,1.7414255E0,5.6684966E0,0E0,0E0,4.2057467E0,5.0030217E0,0E0,0E0,0E0,0E0],"parents":[2147483647,0,0,1,1,3,3,5,5,6,6,9,9,10,10],"right_children":[2,4,-1,6,-1,8,10,-1,-1,12,14,-1,-1,-1,-1],"split_conditions":[8.968078E-1,2.3020055E4,2.3350038E-2,8.495117E-2,-3.520086E-2,4.3849757E-1,5E0,-3.59301E-2,-9.0193935E-3,3.4949164E0,5E0,1.2024561E-2,-1.3714305E-2,-2.5159393E-2,-3.8689238E-3],"split_indices":[16,26,0,0,0,18,19,0,0,20,8,0,0,0,0],"split_type":[0,0,0,0,0,0,0,0,0,0,0,0,0,0,0],"sum_hessian":[3.7496817E2,3.5722586E2,1.7742289E1,3.4391333E2,1.331256E1,2.7108541E1,3.1680478E2,1.5224362E1,1.1884179E1,1.0094045E2,2.1586432E2,8.238551E1,1.8554943E1,3.1798946E1,1.8406537E2],"tree_param":{"num_deleted":"0","num_feature":"30","num_nodes":"15","size_leaf_vector":"1"}},{"base_weights":[-9.866466E-2,1.9006522E-1,-1.7551728E-1,5.164215E-1,-5.204633E-2,2.8219277E-2,-2.0876506E-1,8.581618E-4,4.4314675E-2,2.4580434E-1,-3.4744054E-1,1.6308695E-2,-2.4100989E-1,2.8231928E-2,-7.00302E-3,-3.7411615E-2,5.273387E-3,-1.4271024E-1,-4.7746557E-1,-1.312899E-2,2.0011568E-3,-8.240784E-3,-3.230458E-2],"categories":[],"categories_nodes":[],"categories_segments":[],"categories_sizes":[],"default_left":[0,0,0,0,0,0,0,0,0,0,0,0,0,0,0,0,0,0,0,0,0,0,0],"id":41,"left_children":[1,3,5,7,9,-1,11,-1,-1,13,15,-1,17,-1,-1,-1,-1,19,21,-1,-1,-1,-1],"loss_changes":[8.399118E0,6.353053E0,7.427904E0,6.194412E0,4.1744165E0,0E0,5.0140123E0,0E0,0E0,3.0127697E0,4.47404E0,0E0,6.1706285E0,0E0,0E0,0E0,0E0,4.264679E0,3.9708233E0,0E0,0E0,0E0,0E0],"parents":[2147483647,0,0,1,1,2,2,3,3,4,4,6,6,9,9,10,10,12,12,17,17,18,18],"right_children":[2,4,6,8,10,-1,12,-1,-1,14,16,-1,18,-1,-1,-1,-1,20,22,-1,-1,-1,-1],"split_conditions":[1.8768401E-1,5.1560974E-1,7.163459E3,3.710313E-1,6.1264616E-1,2.8219277E-2,8.0859804E-1,8.581618E-4,4.4314675E-2,5.4164374E-1,7.2908986E-1,1.6308695E-2,7.18516E-1,2.8231928E-2,-7.00302E-3,-3.7411615E-2,5.273387E-3,4.2433664E-1,1.3697778E-1,-1.312899E-2,2.0011568E-3,-8.240784E-3,-3.230458E-2],"split_indices":[18,12,26,12,10,0,9,0,0,7,12,0,10,0,0,0,0,3,17,0,0,0,0],"split_type":[0,0,0,0,0,0,0,0,0,0,0,0,0,0,0,0,0,0,0,0,0,0,0],"sum_hessian":[3.7607736E2,7.847563E1,2.9760175E2,3.311629E1,4.535934E1,1.1981446E1,2.856203E2,1.4653526E1,1.8462767E1,2.2500788E1,2.2858553E1,1.5543197E1,2.700771E2,1.220874E1,1.0292047E1,1.1898212E1,1.09603405E1,1.9220135E2,7.787574E1,1.1613158E2,7.606977E1,2.8186155E1,4.9689587E1],"tree_param":{"num_deleted":"0","num_feature":"30","num_nodes":"23","size_leaf_vector":"1"}},{"base_weights":[-1.1722066E-1,-3.2627214E-2,-3.5625443E-1,-6.026282E-2,2.1446902E-2,-1.829917E-1,-5.9000814E-1,2.7217964E-2,-8.999058E-2,-2.887155E-2,2.1820355E-2,-4.102577E-2,-1.1305436E-2,2.011622E-2,-1.1889635E-1,-1.591354E-1,2.4916895E-2,-9.558973E-3,3.1506885E-3,7.2750575E-3,-1.9105261E-2],"categories":[],"categories_nodes":[],"categories_segments":[],"categories_sizes":[],"default_left":[0,0,0,0,0,0,0,0,0,0,0,0,0,0,0,0,0,0,0,0,0],"id":42,"left_children":[1,3,5,7,-1,9,11,-1,13,-1,15,-1,-1,-1,17,19,-1,-1,-1,-1,-1],"loss_changes":[7.5149136E0,3.531921E0,3.7590265E0,4.7333393E0,0E0,4.7235456E0,3.1289692E0,0E0,3.6032085E0,0E0,3.4526355E0,0E0,0E0,0E0,3.165208E0,2.0269573E0,0E0,0E0,0E0,0E0,0E0],"parents":[2147483647,0,0,1,1,2,2,3,3,5,5,6,6,8,8,10,10,14,14,15,15],"right_children":[2,4,6,8,-1,10,12,-1,14,-1,16,-1,-1,-1,18,20,-1,-1,-1,-1,-1],"split_conditions":[9E0,6.2769284E0,6.518497E-1,2.118119E-1,2.1446902E-2,2.7680838E-1,6.6243345E-1,2.7217964E-2,2.9921135E-1,-2.887155E-2,7.580768E-1,-4.102577E-2,-1.1305436E-2,2.011622E-2,7.092426E-1,5.201102E-1,2.4916895E-2,-9.558973E-3,3.1506885E-3,7.2750575E-3,-1.9105261E-2],"split_indices":[19,0,12,12,0,6,7,0,11,0,11,0,0,0,12,11,0,0,0,0,0],"split_type":[0,0,0,0,0,0,0,0,0,0,0,0,0,0,0,0,0,0,0,0,0],"sum_hessian":[3.731428E2,2.7675482E2,9.6387985E1,2.621453E2,1.4609511E1,5.6626198E1,3.9761784E1,1.1316091E1,2.5082921E2,1.8898766E1,3.7727432E1,2.3405985E1,1.63558E1,1.3002156E1,2.3782706E2,2.7674381E1,1.0053053E1,1.7055481E2,6.727224E1,1.1652664E1,1.6021717E1],"tree_param":{"num_deleted":"0","num_feature":"30","num_nodes":"21","size_leaf_vector":"1"}},{"base_weights":[-5.942068E-2,-2.7776701E-2,-3.941339E-2,-5.6501854E-2,2.62633E-2,4.187364E-1,-9.389792E-2,3.87385E-2,4.301831E-3,2.7515858E-1,-1.4178406E-1,-7.1969084E-3,2.7540132E-2,-2.503389E-2,-4.768885E-3],"categories":[],"categories_nodes":[],"categories_segments":[],"categories_sizes":[],"default_left":[1,1,0,0,0,0,0,0,0,0,0,0,0,0,0],"id":43,"left_children":[1,3,-1,5,-1,7,9,-1,-1,11,13,-1,-1,-1,-1],"loss_changes":[8.524874E0,5.69729E0,0E0,6.1031218E0,0E0,2.8099298E0,5.6635356E0,0E0,0E0,4.364153E0,4.61059E0,0E0,0E0,0E0,0E0],"parents":[2147483647,0,0,1,1,3,3,5,5,6,6,9,9,10,10],"right_children":[2,4,-1,6,-1,8,10,-1,-1,12,14,-1,-1,-1,-1],"split_conditions":[9.237735E3,1.7446045E4,-3.941339E-2,2E0,2.62633E-2,4.4175443E-1,1.7418789E0,3.87385E-2,4.301831E-3,4.7797525E-1,3.7446644E0,-7.1969084E-3,2.7540132E-2,-2.503389E-2,-4.768885E-3],"split_indices":[28,26,0,19,0,12,9,0,0,15,9,0,0,0,0],"split_type":[0,0,0,0,0,0,0,0,0,0,0,0,0,0,0],"sum_hessian":[3.7311188E2,3.5871313E2,1.439875E1,3.4202686E2,1.6686293E1,2.40115E1,3.1801535E2,1.0811949E1,1.319955E1,3.5739338E1,2.82276E2,1.4225511E1,2.1513828E1,3.09527E1,2.513233E2],"tree_param":{"num_deleted":"0","num_feature":"30","num_nodes":"15","size_leaf_vector":"1"}},{"base_weights":[-7.047342E-2,2.082587E-2,-9.915675E-2,-2.8197967E-2,-2.6500005E-1,-2.6841337E-2,7.2088097E-3,-1.6030416E-1,-3.350838E-2,-2.791213E-1,5.9273116E-2,1.3949864E-2,-2.6170638E-1,-3.4101957E-3,-3.571454E-2,1.5705574E-2,-3.0695607E-3,7.753644E-3,-1.9411022E-2],"categories":[],"categories_nodes":[],"categories_segments":[],"categories_sizes":[],"default_left":[0,0,0,0,0,0,0,0,0,0,0,0,0,0,0,0,0,0,0],"id":44,"left_children":[1,-1,3,5,7,-1,9,11,-1,13,15,-1,17,-1,-1,-1,-1,-1,-1],"loss_changes":[5.119995E0,0E0,4.040894E0,4.4548707E0,4.191036E0,0E0,3.41024E0,3.794951E0,0E0,3.097609E0,6.0405354E0,0E0,3.7015133E0,0E0,0E0,0E0,0E0,0E0,0E0],"parents":[2147483647,0,0,2,2,3,3,4,4,6,6,7,7,9,9,10,10,12,12],"right_children":[2,-1,4,6,8,-1,10,12,-1,14,16,-1,18,-1,-1,-1,-1,-1,-1],"split_conditions":[7.740313E-1,2.082587E-2,7.5225675E-1,1.3004227E-1,6.190492E-1,-2.6841337E-2,4.020775E0,4.3945618E-2,-3.350838E-2,7.113242E-1,1.0592091E1,1.3949864E-2,1.4730473E4,-3.4101957E-3,-3.571454E-2,1.5705574E-2,-3.0695607E-3,7.753644E-3,-1.9411022E-2],"split_indices":[9,0,11,22,18,0,9,17,0,5,9,0,26,0,0,0,0,0,0],"split_type":[0,0,0,0,0,0,0,0,0,0,0,0,0,0,0,0,0,0,0],"sum_hessian":[3.6485336E2,1.9348223E1,3.4550516E2,2.4321472E2,1.0229042E2,1.509098E1,2.2812375E2,8.2591194E1,1.9699226E1,3.413191E1,1.9399184E2,1.497555E1,6.761565E1,2.3923311E1,1.0208597E1,6.208863E1,1.319032E2,1.55086975E1,5.210695E1],"tree_param":{"num_deleted":"0","num_feature":"30","num_nodes":"19","size_leaf_vector":"1"}},{"base_weights":[-3.267913E-2,3.9294504E-2,-2.6691207E-1,4.8427758E-1,-1.0160431E-2,-4.3223765E-1,3.210547E-2,-0E0,5.7168078E-2,2.030264E-1,-8.811859E-2,-5.2173823E-1,1.9361716E-3,-1.5518817E-2,3.5697046E-1,3.9509645E-1,-1.5204276E-1,-4.5382115E-3,-6.607774E-1,6.1069685E-3,3.3137858E-2,3.003404E-2,7.035102E-3,-1.4366928E-2,5.9248167E-3,-3.8572893E-2,-1.166559E-2],"categories":[],"categories_nodes":[],"categories_segments":[],"categories_sizes":[],"default_left":[0,0,1,0,0,0,0,0,0,0,0,0,0,0,0,0,0,0,0,0,0,0,0,0,0,0,0],"id":45,"left_children":[1,3,5,7,9,11,-1,-1,-1,13,15,17,-1,-1,19,21,23,-1,25,-1,-1,-1,-1,-1,-1,-1,-1],"loss_changes":[6.272947E0,6.2949114E0,1.3399122E1,9.09609E0,4.2622333E0,3.2165585E0,0E0,0E0,0E0,5.5314407E0,5.8597918E0,3.6403122E0,0E0,0E0,3.6703405E0,9.9839926E-1,6.179068E0,0E0,1.9575119E0,0E0,0E0,0E0,0E0,0E0,0E0,0E0,0E0],"parents":[2147483647,0,0,1,1,2,2,3,3,4,4,5,5,9,9,10,10,11,11,14,14,15,15,16,16,18,18],"right_children":[2,4,6,8,10,12,-1,-1,-1,14,16,18,-1,-1,20,22,24,-1,26,-1,-1,-1,-1,-1,-1,-1,-1],"split_conditions":[7.2442687E-1,1.6971412E-1,4.2620164E-1,6.413006E-1,4.626723E-1,7.204468E-1,3.210547E-2,-0E0,5.7168078E-2,1.7055447E-1,1.6368197E0,1E0,1.9361716E-3,-1.5518817E-2,3.9943087E-1,5.751654E-1,6.1896044E-1,-4.5382115E-3,8.987487E-1,6.1069685E-3,3.3137858E-2,3.003404E-2,7.035102E-3,-1.4366928E-2,5.9248167E-3,-3.8572893E-2,-1.166559E-2],"split_indices":[7,6,25,12,10,16,0,0,0,18,9,13,0,0,10,7,7,0,5,0,0,0,0,0,0,0,0],"split_type":[0,0,0,0,0,0,0,0,0,0,0,0,0,0,0,0,0,0,0,0,0,0,0,0,0,0,0],"sum_hessian":[3.691196E2,2.8266837E2,8.645125E1,2.7596022E1,2.5507234E2,7.368459E1,1.2766656E1,1.6507854E1,1.1088168E1,6.752615E1,1.8754619E2,6.200566E1,1.1678929E1,1.5192727E1,5.2333427E1,2.1123623E1,1.6642256E2,1.5703175E1,4.630249E1,3.0577593E1,2.1755833E1,1.0712334E1,1.0411288E1,1.1114621E2,5.527635E1,3.595442E1,1.0348071E1],"tree_param":{"num_deleted":"0","num_feature":"30","num_nodes":"27","size_leaf_vector":"1"}},{"base_weights":[-5.9311777E-2,1.2868178E-2,-2.638759E-1,3.2467678E-1,-4.0129144E-2,1.9815665E-2,-3.4817255E-1,-4.0966116E-2,6.1226435E-2,-5.673487E-1,1.1097708E-2,-1.3953835E-1,-5.61358E-1,-2.288541E-2,1.8033326E-2,-1.4039035E-2,-3.963196E-2,1.0364904E-1,-2.4166846E-1,1.8641768E-2,-4.1734675E-1,-1.0247889E-2,-4.254495E-2,-1.2031001E-3,1.9893046E-2,-2.2665499E-2,1.0261952E-2,-6.5365196E-3,-3.9781384E-2],"categories":[],"categories_nodes":[],"categories_segments":[],"categories_sizes":[],"default_left":[0,0,0,1,0,0,0,0,0,0,1,0,0,0,0,0,0,0,0,0,0,0,0,0,0,0,0,0,0],"id":46,"left_children":[1,3,5,7,9,-1,11,13,-1,15,17,19,21,-1,-1,-1,-1,23,25,-1,27,-1,-1,-1,-1,-1,-1,-1,-1],"loss_changes":[5.5299554E0,4.60246E0,5.5640216E0,1.3487675E1,6.449901E0,0E0,3.730194E0,5.141391E0,0E0,1.0348196E0,5.0733256E0,6.6565356E0,4.112241E0,0E0,0E0,0E0,0E0,6.0354915E0,5.6042633E0,0E0,3.07687E0,0E0,0E0,0E0,0E0,0E0,0E0,0E0,0E0],"parents":[2147483647,0,0,1,1,2,2,3,3,4,4,6,6,7,7,9,9,10,10,11,11,12,12,17,17,18,18,20,20],"right_children":[2,4,6,8,10,-1,12,14,-1,16,18,20,22,-1,-1,-1,-1,24,26,-1,28,-1,-1,-1,-1,-1,-1,-1,-1],"split_conditions":[9E0,1.5839343E-1,4.041205E-1,9.269517E3,2.0874359E-1,1.9815665E-2,1.049376E1,1.7896196E-1,6.1226435E-2,1.6693963E-1,3.402079E2,6.832075E-1,1.5008135E-1,-2.288541E-2,1.8033326E-2,-1.4039035E-2,-3.963196E-2,5.5673474E-1,6.7285234E-1,1.8641768E-2,8E0,-1.0247889E-2,-4.254495E-2,-1.2031001E-3,1.9893046E-2,-2.2665499E-2,1.0261952E-2,-6.5365196E-3,-3.9781384E-2],"split_indices":[19,6,11,26,6,0,9,2,0,2,27,4,17,0,0,0,0,6,10,0,8,0,0,0,0,0,0,0,0],"split_type":[0,0,0,0,0,0,0,0,0,0,0,0,0,0,0,0,0,0,0,0,0,0,0,0,0,0,0,0,0],"sum_hessian":[3.7159058E2,2.7500424E2,9.6586334E1,3.948074E1,2.355235E2,1.0382856E1,8.6203476E1,2.8673136E1,1.0807605E1,2.0138433E1,2.1538507E2,4.464005E1,4.156343E1,1.4125549E1,1.4547587E1,1.0047831E1,1.0090603E1,1.583794E2,5.7005676E1,1.544752E1,2.919253E1,1.955103E1,2.2012402E1,1.1084311E2,4.753628E1,3.8827576E1,1.81781E1,1.7524494E1,1.1668035E1],"tree_param":{"num_deleted":"0","num_feature":"30","num_nodes":"29","size_leaf_vector":"1"}},{"base_weights":[-7.15442E-2,-9.325669E-2,3.0582292E-2,-2.165187E-2,-2.9278436E-1,2.8722334E-1,-7.827756E-2,1.4572672E-2,-3.768785E-1,2.381903E-2,4.5736965E-2,2.5209809E-2,-1.2039096E-1,-5.3989947E-1,-1.3536277E-1,-1.2064858E-2,2.5009407E-2,-7.822859E-3,2.006466E-2,-1.7063592E-2,-4.862999E-2,-2.263818E-2,1.859964E-2],"categories":[],"categories_nodes":[],"categories_segments":[],"categories_sizes":[],"default_left":[0,0,0,0,0,1,0,0,0,0,0,0,0,0,0,0,0,0,0,0,0,0,0],"id":47,"left_children":[1,3,-1,5,7,9,11,-1,13,15,-1,-1,17,19,21,-1,-1,-1,-1,-1,-1,-1,-1],"loss_changes":[5.526485E0,5.1306686E0,0E0,4.683143E0,4.7902126E0,6.728883E0,5.5969257E0,0E0,3.155239E0,3.9739358E0,0E0,0E0,4.04408E0,3.7819805E0,5.8635354E0,0E0,0E0,0E0,0E0,0E0,0E0,0E0,0E0],"parents":[2147483647,0,0,1,1,3,3,4,4,5,5,6,6,8,8,9,9,12,12,13,13,14,14],"right_children":[2,4,-1,6,8,10,12,-1,14,16,-1,-1,18,20,22,-1,-1,-1,-1,-1,-1,-1,-1],"split_conditions":[8.215794E-1,9E0,3.0582292E-2,1.5963686E-1,2.5087243E-1,2.1444817E2,4E0,1.4572672E-2,2.2533728E-1,6.9502E-1,4.5736965E-2,